Word,SS,Lw,Ec,Ci,At,Li,EE,ME,Sp,Me,mean,,,
computer,0.72760272,0.484515309,0.47102797,0.356988549,0.523583174,0.478019059,0.691860437,0.577902019,0.33153668,0.443605125,0.508664104,,,
system,0.655487001,0.416960984,0.486687839,0.448278129,0.589152157,0.503659487,0.587589741,0.518512785,0.371236235,0.539359868,0.511692423,,,
science,0.775118113,0.560699403,0.612218738,0.553260207,0.618733585,0.532555282,0.664237022,0.61336273,0.595196843,0.672514021,0.619789594,,,
also,0.315534502,0.153669015,0.203421414,0.222231671,0.296763718,0.26973179,0.268484563,0.271310866,0.155193493,0.215183809,0.237152484,,,
university,0.769379616,0.749658883,0.737725914,0.615378439,0.707805276,0.713088512,0.743510604,0.686048985,0.746045589,0.710543752,0.717918557,,,
data,0.828663826,0.629806399,0.589932323,0.606298864,0.684893966,0.649053633,0.689447522,0.633985043,0.585336328,0.76747942,0.666489732,,,
language,0.624914706,0.535054266,0.477616459,0.472757459,0.595396459,0.539448142,0.706452191,0.530785084,0.49348861,0.438078851,0.541399223,,,
used,0.541495621,0.382429332,0.333600432,0.376538515,0.363343328,0.372819692,0.385785341,0.398129195,0.29314816,0.40269199,0.384998161,,,
program,0.703119814,0.623147845,0.492369324,0.528686941,0.643101931,0.671528876,0.745060623,0.673883915,0.494975448,0.63087976,0.620675448,,,
first,0.456193835,0.287492692,0.384189904,0.396600336,0.35504365,0.297729105,0.404061437,0.412429512,0.37802422,0.34103781,0.37128025,,,
may,0.434833884,0.258813858,0.162698865,0.159633115,0.332407236,0.304782629,0.296861887,0.225601867,0.259879768,0.27895841,0.271447152,,,
software,0.813183486,0.666076839,0.529453218,0.714067757,0.763505459,0.629678428,0.845252931,0.821496308,0.582829893,0.578222275,0.694376659,,,
information,0.814097822,0.584463596,0.593952596,0.564251184,0.573850572,0.568847835,0.683604658,0.645012081,0.467521876,0.625204504,0.612080672,,,
time,0.357435673,0.23597987,0.297131628,0.266213119,0.345035374,0.372626394,0.323926955,0.440964699,0.223998919,0.312359929,0.317567256,,,
engineering,0.890147924,0.707202554,0.740574419,0.754420578,0.682410121,0.713542104,0.792740822,0.731608868,0.638691127,0.740648687,0.73919872,,,
programming,0.673760414,0.617456198,0.268742561,0.333526701,0.651542783,0.389351249,0.811482608,0.68445003,0.254043669,0.405278057,0.508963427,,,
use,0.589876533,0.331071764,0.404145449,0.360848367,0.394894212,0.443060547,0.490822643,0.438194335,0.425882101,0.466635615,0.434543157,,,
study,0.744869888,0.5479967,0.538762271,0.407171488,0.656895876,0.579580963,0.670081019,0.647228777,0.594989777,0.616658628,0.600423539,,,
function,0.709013402,0.47005254,0.286061227,0.34165746,0.431223303,0.381040066,0.647776723,0.638570487,0.263975501,0.351827234,0.452119794,,,
number,0.675331533,0.442850769,0.287519068,0.368314445,0.353795528,0.390473455,0.517260671,0.493198812,0.361331701,0.393326223,0.42834022,,,
state,0.590485513,0.447796524,0.502509177,0.491977006,0.513342202,0.642145336,0.594197392,0.632781386,0.504927516,0.509232104,0.542939416,,,
type,0.57239455,0.417364001,0.278889835,0.341609746,0.386623204,0.37449035,0.50913769,0.434623778,0.281463444,0.438327461,0.403492406,,,
example,0.475597233,0.376780599,0.256332099,0.233113408,0.322131813,0.329515964,0.41967988,0.405996263,0.241766244,0.333818555,0.339473206,,,
research,0.833398104,0.63692832,0.626930475,0.632130623,0.655180573,0.704172373,0.722551346,0.690545142,0.644603312,0.689428985,0.683586925,,,
new,0.542298377,0.404470772,0.369456977,0.348912746,0.402606577,0.468883961,0.475293249,0.50805223,0.343630373,0.484989762,0.434859502,,,
machine,0.665977836,0.535071373,0.363159984,0.294015884,0.521386147,0.505001247,0.80121839,0.664642215,0.384030849,0.37166363,0.510616755,,,
many,0.494911671,0.440763235,0.379976958,0.414878607,0.439142823,0.451712996,0.397374243,0.407554299,0.40407753,0.410694927,0.424108729,,,
technology,0.727587879,0.629225791,0.645755291,0.661933184,0.618422031,0.653173447,0.634508133,0.642752051,0.516196787,0.671764135,0.640131873,,,
problem,0.733525634,0.537140846,0.513593674,0.374408752,0.530451298,0.599210799,0.681843042,0.649707019,0.486364633,0.480733305,0.5586979,,,
theory,0.753562033,0.607724249,0.628911436,0.4717215,0.480052471,0.552004814,0.771080315,0.727593362,0.55216974,0.572877049,0.611769697,,,
\displaystyle,0.878775835,0.722129762,0.738779306,0.807567239,0.796415806,0.800468624,0.80969274,0.816958725,0.718363166,0.838311732,0.792746294,,,
algorithm,0.748192072,0.713340223,0.451576561,0.526244223,0.701056242,0.771551132,0.843415678,0.770910501,0.457413614,0.527436316,0.651113656,,,
degree,0.848433316,0.694359243,0.489719599,0.671102405,0.659057617,0.618774712,0.798492491,0.778920054,0.625144541,0.71719557,0.690119955,,,
student,0.832102418,0.609005034,0.738068223,0.618634939,0.704011798,0.748350382,0.828512609,0.786468387,0.77831465,0.671517015,0.731498545,,,
set,0.526479304,0.314361423,0.150124326,0.214861214,0.280477613,0.216388807,0.44030875,0.430265933,0.114287667,0.204866171,0.289242121,,,
computing,0.807349205,0.604883552,0.557547092,0.526195824,0.613993108,0.567389667,0.824967563,0.709629536,0.561600924,0.488527894,0.626208436,,,
process,0.688531578,0.617826283,0.426651001,0.419438809,0.587159514,0.487841934,0.618064046,0.599809825,0.412302524,0.518513262,0.537613878,,,
design,0.71207279,0.589807391,0.473768413,0.47730875,0.569289267,0.549628854,0.697293162,0.705584884,0.443590432,0.564003646,0.578234759,,,
using,0.549982548,0.277841628,0.276582897,0.24804768,0.400620848,0.338937432,0.425883293,0.381215394,0.230580702,0.370851129,0.350054355,,,
year,0.530312777,0.47482428,0.459716827,0.469616532,0.496701509,0.522688687,0.561944544,0.533896625,0.441262215,0.461402357,0.495236635,,,
memory,0.66861254,0.612993062,0.351070851,0.381229192,0.554609358,0.337739527,0.756008625,0.689776719,0.474923223,0.325259626,0.515222272,,,
value,0.62329334,0.510286868,0.489412278,0.471703768,0.407427967,0.477298021,0.677871048,0.599995673,0.437496036,0.40705803,0.510184303,,,
method,0.742776573,0.458089888,0.404967844,0.461422175,0.494389176,0.538896382,0.623013139,0.641545355,0.439039975,0.575484931,0.537962544,,,
application,0.69987303,0.411780626,0.36255151,0.265542567,0.555952609,0.403354228,0.631350756,0.532299697,0.309702396,0.453650266,0.462605768,,,
code,0.600784421,0.426711977,0.33174178,0.351633728,0.582419574,0.330090344,0.687981009,0.605261207,0.325011313,0.369484007,0.461111936,,,
school,0.79212445,0.664960086,0.715491056,0.65903163,0.634768128,0.646669328,0.792062223,0.820873797,0.717127502,0.626274407,0.706938261,,,
model,0.64541626,0.483290076,0.35189411,0.168759391,0.322714269,0.351600707,0.509635806,0.518244565,0.216148302,0.511938691,0.407964218,,,
field,0.77377665,0.572664082,0.382357597,0.320873529,0.513440728,0.499716461,0.592835486,0.687550485,0.53029561,0.66046834,0.553397897,,,
network,0.916020453,0.621184468,0.553069413,0.533451796,0.585725546,0.638901293,0.682388365,0.689437091,0.497287571,0.743356586,0.646082258,,,
called,0.255619556,0.099321134,-0.007600458,0.185396016,0.051314306,0.103669122,0.10994409,0.21908702,0.021559045,0.039273832,0.107758366,,,
object,0.61170876,0.460585952,0.382211268,0.335015506,0.421603441,0.349930495,0.636863232,0.483885169,0.314355969,0.386902958,0.438306275,,,
work,0.48354885,0.371315211,0.422306538,0.322064638,0.332433403,0.280491561,0.410510719,0.390995979,0.358822793,0.312090278,0.368457997,,,
development,0.682477891,0.529117465,0.515800536,0.508714914,0.560439646,0.448746592,0.651607454,0.622231245,0.527865231,0.535521507,0.558252248,,,
often,0.54304558,0.382356793,0.382387668,0.503700376,0.425904065,0.523393154,0.481472433,0.506857216,0.482802302,0.438849837,0.467076942,,,
would,0.422391921,0.386529088,0.316973954,0.354827523,0.390812695,0.433083922,0.35660097,0.406892568,0.336886019,0.428413957,0.383341262,,,
term,0.576399684,0.391169369,0.452476323,0.441500038,0.421838999,0.454055786,0.57217145,0.591905296,0.498012513,0.431588054,0.483111751,,,
different,0.649345458,0.459564686,0.403742939,0.352611184,0.413696706,0.483209312,0.523351133,0.501990497,0.436016262,0.473424107,0.469695228,,,
known,0.306524873,0.252491504,0.228813633,0.237494826,0.20388709,0.322018474,0.279593825,0.34813714,0.195472658,0.280332923,0.265476695,,,
list,0.583933294,0.567268431,0.540305436,0.541674912,0.515104413,0.544730425,0.58193177,0.549472451,0.365272284,0.532951117,0.532264453,,,
user,0.897281587,0.698324382,0.635034561,0.711265087,0.806474388,0.641095221,0.79166013,0.747979999,0.701547086,0.654497623,0.728516006,,,
class,0.487138242,0.405892789,0.293318838,0.193379298,0.333201677,0.290443897,0.369328767,0.442459911,0.226238146,0.370137483,0.341153905,,,
world,0.698805213,0.575402141,0.638979554,0.556407034,0.468103915,0.503663003,0.717448056,0.715209126,0.560347617,0.592395127,0.602676079,,,
operation,0.524318159,0.390024304,0.178250894,0.38766107,0.326576412,0.457207948,0.521491766,0.399840266,0.238484249,0.23463738,0.365849245,,,
reference,0.494735688,0.357758999,0.450509369,0.42428425,0.439411312,0.417944849,0.463755101,0.491553992,0.374688238,0.382366806,0.42970086,,,
structure,0.58520484,0.419241548,0.293460906,0.352913976,0.309261888,0.389956534,0.495087922,0.485563159,0.354253262,0.456891596,0.414183563,,,
variable,0.730065227,0.60970062,0.412210196,0.504311621,0.582829595,0.364602625,0.673770964,0.603875875,0.321447968,0.402373701,0.520518839,,,
history,0.553400636,0.43561092,0.47651872,0.447235256,0.50130111,0.369841516,0.520182312,0.49349013,0.357882679,0.464182168,0.461964545,,,
case,0.500497222,0.362972975,0.21460551,0.386809915,0.341402918,0.327759027,0.403786689,0.420925766,0.278429836,0.285900325,0.352309018,,,
part,0.261180788,0.150610685,0.083663449,0.136821777,0.070838191,0.208197951,0.167425364,0.128038585,0.140890956,0.155116126,0.150278387,,,
including,0.430690765,0.261390507,0.235284328,0.234348804,0.348047197,0.381673038,0.383617193,0.402960986,0.311049581,0.370088995,0.335915139,,,
device,0.754846334,0.659867108,0.597440958,0.479059637,0.72291404,0.561221063,0.748060942,0.692502081,0.671407402,0.535456538,0.64227761,,,
form,0.385935575,0.296059251,0.272140622,0.318228871,0.410841137,0.383268774,0.323297262,0.374649078,0.309772938,0.305922121,0.338011563,,,
human,0.757891536,0.631598175,0.575681508,0.571380854,0.607428491,0.608847916,0.73617065,0.700778663,0.616092741,0.567899704,0.637377024,,,
include,0.498782575,0.355425119,0.408007175,0.321466237,0.428464472,0.446261317,0.507910609,0.439103931,0.36908856,0.40665856,0.418116856,,,
education,0.851054847,0.688783407,0.757475197,0.689105451,0.741353452,0.779174864,0.800287664,0.821077347,0.780763865,0.696942806,0.76060189,,,
based,0.471839309,0.311434746,0.24437815,0.226607651,0.350920796,0.361485302,0.29075551,0.332161009,0.154685333,0.282957196,0.3027225,,,
american,0.713870525,0.690760851,0.650730789,0.571698368,0.624675572,0.72008568,0.773496032,0.811182439,0.56927675,0.666917741,0.679269475,,,
college,0.886522949,0.756258845,0.818877339,0.724360704,0.819504857,0.799142122,0.784073114,0.738948584,0.789179981,0.787825882,0.790469438,,,
social,0.869429886,0.582119524,0.666176736,0.644733727,0.646606624,0.58794564,0.749041498,0.657984734,0.663722098,0.755986869,0.682374734,,,
however,0.358308822,0.214475617,0.215694189,0.21370694,0.289507359,0.291823536,0.288188368,0.303876817,0.291009992,0.252301008,0.271889265,,,
since,0.361401558,0.215021133,0.316444904,0.337781221,0.230877981,0.307399094,0.308459103,0.344793171,0.261813104,0.251916707,0.293590797,,,
instruction,0.619180977,0.625884056,0.298331589,0.322405636,0.620675385,0.342384368,0.909232616,0.786716938,0.304665029,0.365421444,0.519489804,,,
mathematics,0.853406429,0.663659334,0.491794705,0.485963762,0.70690757,0.647696972,0.782936752,0.769557595,0.602445722,0.703695476,0.670806432,,,
group,0.543239951,0.423333287,0.323037565,0.35405609,0.289431274,0.292179525,0.337636024,0.417298496,0.365267158,0.265068114,0.361054748,,,
see,0.47056815,0.257781416,0.348407298,0.365164667,0.319908768,0.396840304,0.358927667,0.434317142,0.218891814,0.25068298,0.342149021,,,
learning,0.832639515,0.524776638,0.639986038,0.392659783,0.617243588,0.602529347,0.848042011,0.852172911,0.616003275,0.648711324,0.657476443,,,
name,0.547673941,0.459125668,0.469744116,0.399456292,0.45168677,0.327428222,0.441952527,0.45426926,0.361780822,0.374160916,0.428727853,,,
analysis,0.837815106,0.573194981,0.49007079,0.550207555,0.543426156,0.58748877,0.699669361,0.678701222,0.545196593,0.693166971,0.619893751,,,
could,0.513552189,0.478296399,0.386315435,0.407905757,0.507735193,0.509599686,0.551654577,0.489258856,0.372719675,0.468560725,0.468559849,,,
woman,0.858101487,0.746237218,0.751509726,0.709387124,0.764476597,0.710230589,0.680932343,0.771584749,0.688401043,0.674276114,0.735513699,,,
national,0.756590366,0.686834216,0.57772094,0.571911454,0.631215215,0.588561356,0.741852522,0.768115342,0.571502149,0.619030297,0.651333386,,,
support,0.540860474,0.364785969,0.331503063,0.391235411,0.48330152,0.454167843,0.59173888,0.554866791,0.449584365,0.447407365,0.460945168,,,
area,0.710968256,0.562003016,0.553575933,0.462171763,0.572675586,0.614521801,0.586777747,0.594038606,0.586525202,0.601524413,0.584478232,,,
like,0.423549592,0.311625808,0.200500235,0.250347942,0.322871119,0.314739615,0.279004604,0.338640988,0.25195536,0.287100494,0.298033576,,,
institute,0.806571424,0.608250797,0.647738814,0.670110345,0.665945768,0.678808808,0.780608296,0.708673418,0.614641905,0.756252646,0.693760222,,,
well,0.429091662,0.247733474,0.238546684,0.227980569,0.261531293,0.311179936,0.320114344,0.346807808,0.251168489,0.281785905,0.291594017,,,
way,0.530260324,0.329183757,0.277293891,0.326250851,0.429666013,0.439207554,0.389503986,0.422095478,0.329664648,0.338152468,0.381127897,,,
early,0.563925803,0.449322045,0.452839494,0.462029636,0.478448063,0.462105572,0.515042901,0.46257323,0.444864869,0.492802203,0.478395382,,,
level,0.677675962,0.523734391,0.466782004,0.468420833,0.478975087,0.582665205,0.61511457,0.631250083,0.51828748,0.556892574,0.551979819,,,
element,0.524694741,0.356811464,0.292030901,0.197351873,0.256644696,0.185820356,0.51269877,0.524902821,0.205035895,0.346529365,0.340252088,,,
common,0.409834206,0.456236959,0.382715493,0.403669387,0.376993388,0.452774286,0.438688874,0.423369318,0.393315047,0.357957989,0.409555495,,,
service,0.760658443,0.574087858,0.473346323,0.443544894,0.605305791,0.581941068,0.672592103,0.648088634,0.578477561,0.565413475,0.590345615,,,
result,0.541914105,0.301350832,0.286132365,0.221408516,0.361290485,0.422390223,0.424349248,0.353583843,0.316453367,0.390613347,0.361948633,,,
control,0.499612242,0.406368136,0.367474645,0.361243159,0.395516604,0.394908071,0.5297876,0.564814925,0.332863152,0.350416213,0.420300475,,,
general,0.285298765,0.348038495,0.261471272,0.38352114,0.292121023,0.350537211,0.418356478,0.379776865,0.268341064,0.327055991,0.33145183,,,
file,0.793307126,0.596552193,0.464011788,0.451345026,0.683365703,0.568564057,0.787996471,0.714871466,0.376800656,0.600556254,0.603737074,,,
mathematical,0.824453831,0.604359686,0.622280538,0.507568061,0.675907135,0.658981264,0.775388539,0.695651054,0.583889186,0.694434822,0.664291412,,,
developed,0.549128652,0.48377198,0.393838108,0.407301396,0.401428133,0.442515105,0.566601217,0.543297648,0.381916106,0.489083946,0.465888229,,,
logic,0.832282066,0.71183008,0.528811038,0.321246564,0.705542326,0.581867635,0.889050007,0.783977389,0.595766068,0.614339232,0.656471241,,,
space,0.661265612,0.597835898,0.458687395,0.481476784,0.526310265,0.640777826,0.637924731,0.741745651,0.454817384,0.519690812,0.572053236,,,
architecture,0.697577,0.670301557,0.403109968,0.594940245,0.587512255,0.435157895,0.726787388,0.758135974,0.507467866,0.642287016,0.602327716,,,
management,0.782644033,0.650653362,0.587481141,0.673954189,0.742383599,0.683971822,0.757384539,0.732406437,0.562618494,0.684739053,0.685823667,,,
another,0.27704376,0.194765091,0.191229492,0.078962192,0.193212554,0.259698987,0.148855448,0.161214113,0.039672673,0.139661103,0.168431541,,,
international,0.657681942,0.611496508,0.519056618,0.54265517,0.499885947,0.558456898,0.640713632,0.6153633,0.526890039,0.592214823,0.576441488,,,
standard,0.617230892,0.461066008,0.432950437,0.439994097,0.381173372,0.431935042,0.643715382,0.598077238,0.386451155,0.417806298,0.481039992,,,
member,0.640914917,0.607766747,0.528768182,0.479437411,0.404186964,0.583733916,0.606568277,0.698119879,0.517461717,0.572396815,0.563935483,,,
within,0.502447069,0.287901253,0.217630863,0.313809842,0.406526536,0.406278163,0.355286837,0.338188827,0.329661846,0.339072734,0.349680397,,,
order,0.421769559,0.287806928,0.204419225,0.255891085,0.329303652,0.42483902,0.346130639,0.404647529,0.273908615,0.307153016,0.325586927,,,
project,0.725807548,0.539236069,0.597426653,0.462276131,0.574705958,0.528816879,0.619100213,0.633644938,0.537560165,0.561754942,0.57803295,,,
united,0.764562905,0.696138263,0.720322251,0.715038598,0.633930802,0.706813157,0.744354963,0.812006474,0.448056042,0.680056155,0.692127961,,,
several,0.348763436,0.291326702,0.225538537,0.270348608,0.284500629,0.405842513,0.338273555,0.373658955,0.256727695,0.331429154,0.312640978,,,
later,0.367298633,0.317439705,0.256499112,0.304989874,0.28140384,0.335437894,0.367016613,0.416682363,0.272396594,0.376167864,0.329533249,,,
access,0.763529778,0.60581857,0.476052493,0.500033975,0.587923527,0.580214143,0.700273097,0.674898148,0.551408231,0.641690016,0.608184198,,,
made,0.331278145,0.249117583,0.192748502,0.15405497,0.264986068,0.307468295,0.197177947,0.298343241,0.181586727,0.202529356,0.237929083,,,
digital,0.781212389,0.615329683,0.587798119,0.611381292,0.599444211,0.564219236,0.800671935,0.755926311,0.496309936,0.604250491,0.64165436,,,
computational,0.837031782,0.679856539,0.565101087,0.591654003,0.648983896,0.724257469,0.837935686,0.737202406,0.666423738,0.646096885,0.693454349,,,
scientific,0.82184124,0.633370399,0.625627697,0.51459223,0.689476728,0.602136254,0.753653944,0.712269008,0.700226009,0.624124467,0.667731798,,,
make,0.532460809,0.351801127,0.361546189,0.29838717,0.418409914,0.39111799,0.359136194,0.435018122,0.375900626,0.33489874,0.385867688,,,
master,0.685393929,0.652779639,0.496593565,0.594060838,0.544279695,0.355079144,0.712288797,0.709778845,0.385391265,0.599693239,0.573533896,,,
implementation,0.48603183,0.466218621,0.411601067,0.348492801,0.564705551,0.417489141,0.587973893,0.402339131,0.361594141,0.447910964,0.449435714,,,
computation,0.715319335,0.494173467,0.416474551,0.335496426,0.565263927,0.63292408,0.833011031,0.719352961,0.433604449,0.462799549,0.560841978,,,
link,0.621756732,0.480386496,0.467345238,0.428067386,0.496228456,0.470568448,0.50788933,0.516679227,0.397465169,0.464910239,0.485129672,,,
department,0.81507659,0.53460139,0.526978731,0.447594494,0.590403795,0.597858489,0.787418306,0.800165832,0.574971557,0.694844604,0.636991379,,,
point,0.403593302,0.250622064,0.194233611,0.197385117,0.197140485,0.33710444,0.347308874,0.414637625,0.235736489,0.296430081,0.287419209,,,
given,0.400513619,0.310466796,0.282985985,0.249201164,0.263020784,0.333798081,0.358777046,0.409060776,0.187080547,0.247564703,0.30424695,,,
modern,0.592731714,0.40906617,0.379666924,0.348280311,0.312820792,0.395417005,0.524821401,0.460502476,0.422321439,0.438967735,0.428459597,,,
company,0.771373749,0.646958113,0.669891477,0.519960999,0.603983581,0.632188618,0.650909245,0.695321202,0.617517233,0.655893564,0.646399778,,,
concept,0.546442449,0.444121391,0.430915207,0.411101997,0.481879205,0.415319264,0.591453075,0.487101942,0.267328948,0.433898121,0.45095616,,,
business,0.801144063,0.648133516,0.603779912,0.548834443,0.709876478,0.669128656,0.706740737,0.734339058,0.58157593,0.706382692,0.670993549,,,
library,0.721334517,0.571143568,0.621113837,0.586241007,0.657299936,0.616274655,0.709116459,0.696430445,0.590096593,0.650420547,0.641947156,,,
operating,0.699174941,0.516168416,0.308071405,0.316397518,0.671222806,0.393856943,0.714133561,0.564612806,0.365445197,0.412974238,0.496205783,,,
usually,0.53587389,0.414447486,0.2881383,0.359079391,0.426919818,0.431639999,0.594575226,0.612400949,0.465316176,0.475154489,0.460354573,,,
bachelor,0.945069313,0.895115137,0.746212125,0.857322454,0.77463007,0.705011785,0.939149141,0.931869745,0.790967524,0.841692805,0.84270401,,,
communication,0.783957243,0.590627611,0.551357567,0.445242345,0.554959595,0.613083959,0.711463511,0.706551194,0.52732861,0.630270123,0.611484176,,,
law,0.762479901,0.42938906,0.589512408,0.539724946,0.593761206,0.640987456,0.7151559,0.701589167,0.580208719,0.724526286,0.627733505,,,
high,0.711093307,0.531377017,0.532155752,0.533100069,0.420963466,0.566604316,0.552114189,0.579409957,0.50156498,0.599210978,0.552759403,,,
even,0.512467623,0.382373482,0.319510341,0.392118752,0.423493862,0.367934763,0.474723399,0.455969959,0.376133889,0.387323648,0.409204972,,,
people,0.633325219,0.563999534,0.565216541,0.466585487,0.599249601,0.549654543,0.583043456,0.648281157,0.593808532,0.555238485,0.575840256,,,
hardware,0.818276942,0.639940023,0.593299091,0.458314687,0.758025527,0.532785416,0.895291388,0.774576724,0.608580947,0.490064472,0.656915522,,,
version,0.479233325,0.372119784,0.260293245,0.338831216,0.541919887,0.390250772,0.518283904,0.465092897,0.352157205,0.354714483,0.407289672,,,
following,0.297973245,0.204998925,0.266832113,0.216225237,0.268148631,0.333086461,0.294179499,0.309201777,0.210661605,0.206961691,0.260826918,,,
resource,0.749344826,0.661062837,0.616158426,0.596068561,0.662379384,0.621474266,0.746250033,0.714099944,0.603788793,0.657871127,0.66284982,,,
became,0.536637783,0.425611347,0.364512116,0.382025808,0.329638004,0.470890135,0.45312804,0.457547873,0.331516534,0.451385409,0.420289305,,,
possible,0.588539243,0.450869739,0.328453511,0.315691471,0.43561241,0.437139809,0.53308934,0.445977986,0.382840723,0.390880615,0.430909485,,,
public,0.672390521,0.500503659,0.482385546,0.488343537,0.471025884,0.492044568,0.580303252,0.634656608,0.505286634,0.612675309,0.543961552,,,
professor,0.824077308,0.77559942,0.712128818,0.662970185,0.698933125,0.703210235,0.838790357,0.850805998,0.70969522,0.777027249,0.755323792,,,
input,0.599429965,0.554958701,0.34778899,0.382573783,0.719207287,0.654375911,0.782839179,0.690498233,0.497573197,0.535281718,0.576452696,,,
journal,0.834833264,0.618446112,0.679522574,0.537510157,0.651502013,0.667783201,0.815804839,0.781651437,0.719575882,0.810492277,0.711712176,,,
large,0.516996682,0.468256563,0.397603244,0.405242085,0.442397982,0.424221784,0.480423957,0.489558458,0.394009769,0.412903637,0.443161416,,,
intelligence,0.80994457,0.601667464,0.538604617,0.516487896,0.582301199,0.528532386,0.706958711,0.763714552,0.552343905,0.500588238,0.610114354,,,
need,0.637731433,0.490254551,0.523941278,0.46220845,0.524558246,0.528980076,0.623590589,0.609181523,0.49399665,0.453283519,0.534772632,,,
game,0.70400995,0.641514003,0.614155352,0.572733164,0.672776103,0.675855875,0.67234683,0.677016556,0.435359389,0.705012262,0.637077948,,,
academic,0.821965337,0.677213788,0.573993444,0.619964123,0.571358919,0.611080825,0.741149127,0.773115098,0.687619567,0.753935754,0.683139598,,,
course,0.800556421,0.602414966,0.417686224,0.514999092,0.57273376,0.635546803,0.775688052,0.791374683,0.555527747,0.661503077,0.632803082,,,
node,0.840865016,0.745191991,0.481055051,0.496994555,0.630494177,0.601281464,0.725448668,0.736251056,0.616279721,0.731788278,0.660564998,,,
feature,0.478829771,0.410229295,0.192261472,0.334710032,0.353003263,0.350470662,0.457024157,0.388210386,0.347160012,0.371070892,0.368296994,,,
source,0.502157807,0.33769539,0.398746431,0.320027471,0.428102493,0.409770072,0.474808693,0.431154817,0.349123299,0.355689615,0.400727609,,,
interface,0.742554307,0.684048295,0.432996213,0.578602314,0.766361833,0.626205325,0.798072517,0.675556064,0.585424244,0.55633378,0.644615489,,,
must,0.601997256,0.535957932,0.458211899,0.504204571,0.50997889,0.485121191,0.59310627,0.586207509,0.507659137,0.552132666,0.533457732,,,
various,0.54053688,0.374528915,0.323603094,0.294031203,0.349994183,0.464859426,0.479425162,0.467212826,0.44685483,0.429565281,0.41706118,,,
john,0.699579895,0.593969166,0.677746713,0.514524758,0.578024566,0.578974485,0.768850625,0.694338858,0.585806251,0.654956162,0.634677148,,,
processing,0.66805321,0.560332596,0.272262365,0.402174741,0.564187765,0.561169863,0.733529866,0.679038286,0.482981294,0.470625758,0.539435574,,,
change,0.711554945,0.470057756,0.480847299,0.475033492,0.528420568,0.49113062,0.515119791,0.523894548,0.354586244,0.473157465,0.502380273,,,
word,0.630167246,0.533271551,0.488101929,0.371003538,0.500588238,0.450611562,0.612599909,0.553265095,0.485301465,0.499576062,0.51244866,,,
array,0.504973531,0.522516489,0.258615971,0.167321667,0.47508052,0.27859059,0.703350782,0.550215065,0.314731985,0.280754179,0.405615078,,,
art,0.836383522,0.734703183,0.671529651,0.70028621,0.468380839,0.657062948,0.825827122,0.809809208,0.732365251,0.793194771,0.72295427,,,
tree,0.661393046,0.597303331,0.452747524,0.351520777,0.51884079,0.427638888,0.732774436,0.690580308,0.431770414,0.570398629,0.543496814,,,
power,0.538437128,0.440958172,0.493856192,0.437302321,0.401302159,0.470721543,0.533884168,0.544953346,0.417023718,0.397635013,0.467607376,,,
applied,0.705511093,0.304631829,0.288803846,0.187863737,0.382920265,0.353999585,0.594331503,0.672839105,0.388964236,0.503675282,0.438354048,,,
ibm,0.83637315,0.715205729,0.606886685,0.584485888,0.715589821,0.735165656,0.849866629,0.750996947,0.628192425,0.605938256,0.702870119,,,
unit,0.554700136,0.409504652,0.311360061,0.299436688,0.423786849,0.464107066,0.561570406,0.535998106,0.318228215,0.39728722,0.42759794,,,
natural,0.728556454,0.498682797,0.468786895,0.451350152,0.441436857,0.549201369,0.635175169,0.545033038,0.445283502,0.44357124,0.520707747,,,
task,0.631168127,0.610360861,0.476554275,0.435298473,0.493021637,0.48589927,0.757078648,0.715499461,0.346173853,0.487886161,0.543894076,,,
approach,0.670743704,0.449751824,0.429794073,0.299235821,0.548805833,0.517311513,0.559319794,0.615234971,0.466077656,0.5740785,0.513035369,,,
without,0.453722924,0.325029731,0.392467439,0.353366315,0.383896142,0.403842419,0.502259731,0.474711448,0.292548507,0.351507157,0.393335181,,,
external,0.536779106,0.403768361,0.431383163,0.461735129,0.479051858,0.457378864,0.534243405,0.490295649,0.400459975,0.431326747,0.462642226,,,
single,0.451848269,0.391452014,0.139872134,0.270412564,0.310631424,0.377631843,0.385193169,0.408543825,0.315581322,0.271909684,0.332307625,,,
storage,0.697175741,0.635894597,0.453458756,0.486100703,0.613180935,0.555678606,0.807587981,0.652204633,0.608539402,0.567764163,0.607758552,,,
knowledge,0.81773895,0.497469574,0.62847352,0.529081285,0.611763477,0.590023041,0.748530209,0.698667586,0.569504738,0.529286206,0.622053859,,,
society,0.769749284,0.566445529,0.563305199,0.627460063,0.539868414,0.634017467,0.751150191,0.730763018,0.642798841,0.679975629,0.650553364,,,
mean,0.574620903,0.309259027,0.332173467,0.399479777,0.41207397,0.359079152,0.476574749,0.500085711,0.366062343,0.378331721,0.410774082,,,
typically,0.617731035,0.488352209,0.321403623,0.399692714,0.483589053,0.483925164,0.6409477,0.571549654,0.509315789,0.468244046,0.498475099,,,
available,0.604409695,0.352137893,0.32271564,0.402736425,0.495292664,0.469582796,0.567225218,0.491945118,0.413954169,0.52478534,0.464478496,,,
technique,0.546029091,0.571244299,0.466581613,0.488367528,0.509766519,0.502130747,0.642519712,0.668053865,0.579333484,0.527413547,0.550144041,,,
take,0.503286898,0.260405749,0.247763366,0.235519335,0.322575778,0.417480946,0.342311859,0.395292312,0.258402377,0.381993949,0.336503257,,,
formal,0.678014696,0.356209099,0.350570142,0.347660035,0.338009268,0.359555751,0.681071043,0.561446428,0.398277968,0.411378205,0.448219264,,,
security,0.735876918,0.613770843,0.475726843,0.501915038,0.667762756,0.572410643,0.776336253,0.771012306,0.619043171,0.652059615,0.638591439,,,
character,0.635962903,0.547753453,0.442687184,0.492290586,0.68329066,0.603630245,0.711406946,0.67715621,0.553244114,0.562203884,0.590962619,,,
web,0.856204808,0.655020595,0.6023404,0.528064191,0.728252411,0.558914125,0.806639552,0.735468566,0.714182675,0.653919816,0.683900714,,,
film,0.826181054,0.759629965,0.775262058,0.758062959,0.806124687,0.798325777,0.763362169,0.799648583,0.743055105,0.765881419,0.779553378,,,
defined,0.613094211,0.396892726,0.302992821,0.48143661,0.37101233,0.435317814,0.611419916,0.536578238,0.40621689,0.381796807,0.453675836,,,
component,0.592268646,0.504758894,0.43213737,0.334179312,0.534241915,0.412793934,0.623235703,0.659286439,0.33254385,0.458296835,0.48837429,,,
center,0.758953452,0.589338541,0.561275661,0.506603956,0.5059793,0.606440604,0.713107705,0.792946339,0.527682781,0.704607069,0.626693541,,,
engineer,0.826990426,0.708974779,0.637314677,0.722451925,0.631568193,0.736403406,0.84740597,0.880163372,0.571350574,0.76489979,0.732752311,,,
paper,0.649753332,0.451257855,0.444315374,0.423964977,0.408115655,0.467316747,0.632481575,0.628646374,0.506289959,0.553044617,0.516518646,,,
multiple,0.472392857,0.348701417,0.185540482,0.163348779,0.343161732,0.369647235,0.39869231,0.364686728,0.268944591,0.313124448,0.322824058,,,
book,0.600449741,0.557873845,0.555897295,0.488524139,0.554789484,0.551357031,0.616985917,0.613425136,0.584035933,0.610522509,0.573386103,,,
second,0.312194765,0.220512465,0.291978747,0.295471847,0.299104691,0.286647081,0.273865283,0.351961792,0.243787572,0.330953807,0.290647805,,,
environment,0.7721048,0.586882234,0.52126956,0.57899648,0.715200901,0.568677127,0.673540413,0.640406013,0.646990657,0.600602806,0.630467099,,,
although,0.367590874,0.292206109,0.273193717,0.326721698,0.301035643,0.348705858,0.393288761,0.386351585,0.291114062,0.29416436,0.327437267,,,
isbn,0.731358767,0.732014239,0.672575653,0.569449186,0.648520768,0.594941735,0.776334643,0.779680908,0.622020721,0.654746294,0.678164291,,,
similar,0.333896518,0.189627975,0.118101284,0.202327937,0.197778568,0.259402335,0.313514382,0.32937324,0.158018649,0.242421627,0.234446251,,,
organization,0.751355767,0.696332574,0.63422066,0.613573372,0.640835047,0.638472319,0.662919104,0.70068574,0.622206688,0.65667963,0.66172809,,,
award,0.846868694,0.771833539,0.744567215,0.768828571,0.791356206,0.728856921,0.841393828,0.835184753,0.745293558,0.768641055,0.784282434,,,
key,0.438791752,0.319001853,0.174124047,0.146950126,0.221510872,0.267783284,0.480547011,0.543310404,0.251714975,0.30903542,0.315276974,,,
provide,0.599489868,0.426705211,0.412966996,0.418022424,0.459251851,0.441551834,0.568243206,0.538643956,0.488723904,0.497604221,0.485120347,,,
scientist,0.791786969,0.653095782,0.653710663,0.627625465,0.620531499,0.615568221,0.772295833,0.720109284,0.604106128,0.640972376,0.669980222,,,
considered,0.413740098,0.2289837,0.191253766,0.293018073,0.340107232,0.302367985,0.369269222,0.372986406,0.296017259,0.286464363,0.309420811,,,
designed,0.579925895,0.375223398,0.297609597,0.415024012,0.518516302,0.434151083,0.619966209,0.592647195,0.369043767,0.476876318,0.467898378,,,
definition,0.587594509,0.327466697,0.470066249,0.50088495,0.443170041,0.500630379,0.586695373,0.553619623,0.463883042,0.428485364,0.486249623,,,
medium,0.839347064,0.59619242,0.559651196,0.516658366,0.5334481,0.578384459,0.696721137,0.694191396,0.550999939,0.597416878,0.616301095,,,
internet,0.806570768,0.682536423,0.705843925,0.746632993,0.703744173,0.648103297,0.819087327,0.750076115,0.647931576,0.63331151,0.714383811,,,
much,0.462052882,0.320590228,0.328001916,0.371762127,0.370289624,0.390837878,0.394159585,0.389013708,0.34420976,0.348422289,0.371934,,,
image,0.614670634,0.449582607,0.293027967,0.309815079,0.485176235,0.314393282,0.628828466,0.603318393,0.356004834,0.497287005,0.45521045,,,
open,0.617987275,0.444630474,0.421353877,0.231869012,0.24219355,0.253619522,0.526347041,0.469996899,0.367092937,0.527123034,0.410221362,,,
main,0.309005886,0.115839407,0.147538811,0.232025072,0.246808082,0.223067507,0.26724878,0.32942605,0.187094361,0.258613735,0.231666769,,,
life,0.63174516,0.438442141,0.53988415,0.450436652,0.503969848,0.452932596,0.507888377,0.487654686,0.498485953,0.510296762,0.502173632,,,
campus,0.889034271,0.820820928,0.811031818,0.598655462,0.845009089,0.863358736,0.848059118,0.875771761,0.75853008,0.818467975,0.812873924,,,
found,0.49269858,0.293950111,0.332663536,0.314463496,0.391984403,0.363468349,0.369722933,0.335476696,0.308417171,0.402014613,0.360485989,,,
artificial,0.761986971,0.645719886,0.336238414,0.435111225,0.461025685,0.433458984,0.822564363,0.718767703,0.350397319,0.520982862,0.548625341,,,
string,0.586224914,0.497579068,0.423690081,0.274491221,0.402098984,0.365177155,0.523988664,0.566745162,0.258060485,0.308034658,0.420609039,,,
property,0.630496144,0.512329042,0.434208244,0.477819294,0.431888908,0.476821482,0.474749833,0.497949839,0.402201146,0.315458357,0.465392229,,,
database,0.759765446,0.476715535,0.274389058,0.448562115,0.532961845,0.432321995,0.747338593,0.712759137,0.4571473,0.562286496,0.540424752,,,
specific,0.642937601,0.535076082,0.363267779,0.453771621,0.527697563,0.526836157,0.637534261,0.571436465,0.46507597,0.572523534,0.529615703,,,
processor,0.822200477,0.85649091,0.173704982,0.50353092,0.773589849,0.675794721,0.867886662,0.881104112,0.649284601,0.404261708,0.660784894,,,
conference,0.727523327,0.568725049,0.529990375,0.375492901,0.618353248,0.638790846,0.73541224,0.675859272,0.476625323,0.658175647,0.600494823,,,
related,0.573992491,0.341025382,0.34418416,0.315482557,0.428829193,0.408825368,0.480354518,0.49710831,0.330185175,0.387925476,0.410791263,,,
particular,0.628089726,0.459056079,0.333812267,0.382645726,0.386342287,0.409847647,0.51954484,0.535171092,0.384514719,0.40759781,0.444662219,,,
century,0.814645112,0.752827287,0.747372031,0.738975108,0.761098146,0.687049985,0.818166018,0.800697684,0.735829115,0.777069867,0.763373035,,,
physical,0.730248272,0.50934124,0.509679854,0.356407732,0.535301447,0.488990963,0.669670641,0.685981631,0.366436809,0.510558188,0.536261678,,,
address,0.697434187,0.535367787,0.32673341,0.357028097,0.471756279,0.361407936,0.701027274,0.460678369,0.414432436,0.385390103,0.471125588,,,
message,0.750894368,0.771266222,0.539140284,0.60177505,0.685113907,0.51886034,0.789788306,0.677889526,0.593215823,0.680112004,0.660805583,,,
performance,0.686819077,0.526780844,0.458377331,0.502281129,0.425693899,0.482572556,0.616551816,0.628420591,0.506916761,0.568259358,0.540267336,,,
sequence,0.744155943,0.597953498,0.46282509,0.275776953,0.552790821,0.54645592,0.680439591,0.640583038,0.444352239,0.622540951,0.556787404,,,
solution,0.66128248,0.542887211,0.355972111,0.333424747,0.534863591,0.563322842,0.658448875,0.684054315,0.384075463,0.403336406,0.512166804,,,
building,0.783978939,0.650404334,0.673890591,0.5556674,0.649276555,0.65746814,0.782933474,0.806378186,0.650952578,0.791210055,0.700216025,,,
compiler,0.673942685,0.772404075,0.453428775,0.344706357,0.77338773,0.314778298,0.89224267,0.740768135,0.482601404,0.246783167,0.56950433,,,
series,0.625506341,0.547062576,0.375252336,0.466112584,0.475034386,0.624588549,0.542091906,0.465755284,0.424049199,0.590561867,0.513601503,,,
run,0.475912988,0.257632494,0.231884077,0.336928219,0.374610335,0.298738003,0.547784567,0.47861892,0.29926905,0.329598635,0.363097729,,,
discipline,0.841351032,0.555607796,0.528100014,0.526816905,0.510601401,0.547792554,0.801271439,0.770465016,0.461230308,0.674638867,0.621787533,,,
major,0.47445181,0.428009659,0.452443212,0.395156741,0.338736117,0.368658096,0.428483218,0.493718386,0.389983863,0.438447833,0.420808893,,,
complex,0.588176191,0.402844906,0.306545436,0.181117728,0.406115413,0.394748151,0.510041535,0.501427531,0.334753364,0.377323985,0.400309424,,,
basic,0.443317026,0.329994678,0.160660729,0.243435785,0.276607007,0.312923282,0.432949781,0.442826688,0.192689851,0.39921084,0.323461567,,,
search,0.692001939,0.533338666,0.31146881,0.235545814,0.46579802,0.403002948,0.654131055,0.645340025,0.363146871,0.380407661,0.468418181,,,
rule,0.638924956,0.379851192,0.434544563,0.408671975,0.550349832,0.461932212,0.607724547,0.496539652,0.36173901,0.466083467,0.480636141,,,
written,0.48291868,0.402235717,0.294278651,0.301030576,0.394944787,0.314954668,0.516049683,0.429162949,0.36794281,0.428621411,0.393213993,,,
circuit,0.777779222,0.716811419,0.505957723,0.60706979,0.658151388,0.772082865,0.735566318,0.74408859,0.264427006,0.650823593,0.643275791,,,
expression,0.542883456,0.354907691,0.236069739,0.35747996,0.302223623,0.374145806,0.536251903,0.531602979,0.303609014,0.342107594,0.388128176,,,
individual,0.743656516,0.526491761,0.516951203,0.521139026,0.544240415,0.599137843,0.576999187,0.60294944,0.529070675,0.589429319,0.575006539,,,
among,0.562524796,0.439728588,0.428410619,0.325123101,0.389812022,0.360886335,0.526852965,0.590276182,0.397909135,0.492986083,0.451450983,,,
product,0.702289879,0.581510365,0.548056185,0.600029051,0.631104648,0.670936763,0.642867148,0.706028104,0.596097648,0.586834013,0.626575381,,,
output,0.570026219,0.380445719,0.327797204,0.317518532,0.520392895,0.463372111,0.718025386,0.613846898,0.367980689,0.410369605,0.468977526,,,
line,0.462079555,0.369435281,0.366017461,0.457644612,0.444748938,0.425787687,0.443341404,0.415900528,0.311696708,0.463006705,0.415965888,,,
effect,0.655140698,0.409858286,0.358790338,0.416262686,0.500750601,0.527059913,0.542915463,0.5649243,0.474715233,0.436192602,0.488661012,,,
government,0.756554008,0.673946559,0.499781907,0.478860974,0.704996705,0.693727255,0.728840709,0.720740616,0.696285248,0.71170342,0.66654374,,,
thus,0.429722756,0.328539789,0.210930496,0.338605314,0.369273245,0.307830095,0.389267594,0.424500614,0.265525818,0.359962821,0.342415854,,,
electronic,0.761451066,0.582077622,0.523743987,0.539200366,0.688680887,0.529636979,0.774167776,0.793531001,0.437844932,0.64908272,0.627941734,,,
pattern,0.500710666,0.491908163,0.24007383,0.191898033,0.463525295,0.42896831,0.574997842,0.473440289,0.470266014,0.343962759,0.41797512,,,
quantum,0.81294167,0.769448936,0.698102593,0.578789771,0.708151162,0.686935306,0.921899676,0.879830122,0.298986644,0.744094789,0.709918067,,,
faculty,0.877941489,0.79310292,0.794251502,0.666343749,0.635760784,0.755896866,0.797399819,0.888265371,0.801400721,0.714556098,0.772491932,,,
graphic,0.652074337,0.540005445,0.408229947,0.346675903,0.634365618,0.469954163,0.786779225,0.736529291,0.548247993,0.552736521,0.567559844,,,
city,0.737921298,0.691581368,0.706280947,0.572082341,0.633143485,0.663318157,0.723773837,0.732411146,0.650553703,0.737334669,0.684840095,,,
size,0.609076202,0.475444734,0.386676699,0.436493486,0.512925744,0.466302276,0.652875423,0.615489542,0.394183964,0.420011371,0.496947944,,,
professional,0.764183581,0.627804637,0.65421474,0.754714727,0.719273448,0.666887701,0.8111099,0.819134951,0.685399413,0.68780303,0.719052613,,,
physic,0.880132437,0.743030429,0.788179815,0.696779251,0.7135818,0.722110868,0.872910678,0.915851772,0.636783898,0.794968069,0.776432902,,,
call,0.382308215,0.284875453,0.12218339,0.254523873,0.279309571,0.281135648,0.418914169,0.395411015,0.311459601,0.257374972,0.298749591,,,
president,0.821783066,0.73909843,0.694103062,0.594245315,0.746393025,0.737594008,0.791499615,0.835110307,0.699340403,0.841195822,0.750036305,,,
important,0.490872294,0.416630149,0.374605864,0.360112935,0.373115659,0.35885042,0.436973929,0.465118051,0.398793399,0.370635837,0.404570854,,,
tool,0.71615392,0.491980284,0.333225071,0.44936794,0.62890923,0.541886508,0.672327876,0.613946915,0.461459845,0.572601497,0.548185909,,,
generally,0.498917103,0.324019551,0.29715991,0.392079145,0.459052891,0.446141183,0.504025996,0.467614979,0.388973624,0.380957335,0.415894172,,,
country,0.75065273,0.616053045,0.621260464,0.534892261,0.67275393,0.600827694,0.702880979,0.746912301,0.722826898,0.621643245,0.659070355,,,
either,0.495284081,0.352082402,0.164309546,0.213795364,0.334132016,0.335961729,0.419513762,0.397443175,0.240779489,0.377494782,0.333079635,,,
online,0.802622676,0.484799802,0.607969046,0.48017931,0.561751306,0.532200396,0.708928466,0.699289322,0.606136978,0.574254513,0.605813181,,,
every,0.542771459,0.405546308,0.271089673,0.318269879,0.390122503,0.392387122,0.429706275,0.545764565,0.443251431,0.420121551,0.415903077,,,
complexity,0.647752047,0.558338106,0.515142858,0.337076932,0.43997997,0.523356259,0.748316228,0.734779656,0.294053435,0.403311759,0.520210725,,,
theoretical,0.645596147,0.465105325,0.390000224,0.453787506,0.486541271,0.501166582,0.729388118,0.685258329,0.431562036,0.506946325,0.529535186,,,
end,0.325816065,0.310145468,0.145483002,0.247170895,0.312909186,0.312372267,0.322378248,0.322249025,0.29166171,0.300639719,0.289082558,,,
test,0.733330667,0.475269645,0.512735069,0.566746294,0.614528358,0.670431495,0.675762951,0.687977076,0.55520314,0.662731111,0.615471581,,,
turing,0.881857038,0.721034229,0.646087945,0.667955697,0.781169713,0.765434086,0.926518261,0.896947384,0.665039301,0.627712071,0.757975572,,,
programmer,0.776560664,0.612164378,0.411457956,0.61083442,0.717406332,0.490662485,0.842846513,0.749177396,0.329899997,0.389753073,0.593076321,,,
created,0.441532969,0.258257002,0.085722968,0.278672874,0.280841649,0.255848795,0.368265957,0.42035985,0.208177,0.24332653,0.284100559,,,
higher,0.756302834,0.574633598,0.565476537,0.592561245,0.555494487,0.658048272,0.663177848,0.627645016,0.604723215,0.660909176,0.625897223,,,
due,0.54962045,0.339250535,0.444295734,0.411185443,0.45180288,0.507513165,0.471798033,0.471758157,0.432943463,0.408394367,0.448856223,,,
million,0.817805707,0.782738328,0.573212624,0.777855992,0.756582141,0.740493,0.779438913,0.795828342,0.693767786,0.750773728,0.746849656,,,
published,0.617711782,0.487864763,0.424256563,0.480396956,0.530250788,0.440538198,0.600315094,0.62561059,0.54776448,0.569668591,0.53243778,,,
binary,0.521068454,0.648977876,0.582098544,0.452570081,0.614610612,0.49051109,0.721419275,0.63715744,0.359611124,0.478834867,0.550685936,,,
table,0.522654891,0.395154625,0.26817742,0.179249689,0.373651117,0.278038532,0.676486611,0.643780172,0.597207189,0.400241643,0.433464189,,,
required,0.536753058,0.427855343,0.377496332,0.416239351,0.391126782,0.441983283,0.592644334,0.592554212,0.414371163,0.459253371,0.465027723,,,
u.s.,0.799237072,0.757053792,0.637078226,0.650052607,0.649736106,0.763658762,0.821055233,0.837162316,0.603037775,0.774845481,0.729291737,,,
still,0.335137784,0.266438544,0.335229158,0.30747661,0.273610562,0.272003561,0.316258937,0.296576411,0.218131691,0.214703813,0.283556707,,,
bit,0.631655395,0.520639479,0.288659453,0.455651879,0.50123471,0.209653139,0.821191013,0.557944059,0.334167391,0.370573223,0.469136974,,,
original,0.359951496,0.271030784,0.227802724,0.335496694,0.332832575,0.323790699,0.422546953,0.39520511,0.279332221,0.248070657,0.319605991,,,
branch,0.735417008,0.344921112,0.260626763,0.27731958,0.31211254,0.344957352,0.572651327,0.552179039,0.311734021,0.453160763,0.41650795,,,
collection,0.62948519,0.361829162,0.426028937,0.587743938,0.597880125,0.415085733,0.61254406,0.658667803,0.522839248,0.513730168,0.532583436,,,
practice,0.685034513,0.422505349,0.304460853,0.467802972,0.53499192,0.528270483,0.61230725,0.612543762,0.477939516,0.459428698,0.510528532,,,
working,0.437577814,0.285385132,0.341953814,0.321459651,0.294467181,0.388854563,0.577689469,0.403640956,0.344778806,0.311647683,0.370745507,,,
former,0.716263354,0.675289452,0.60876298,0.586653173,0.564925432,0.659912348,0.737881839,0.794380128,0.550409913,0.74395597,0.663843459,,,
rather,0.507417619,0.330695003,0.345346779,0.341400892,0.363625377,0.313908279,0.451824546,0.442076951,0.319803447,0.413892478,0.382999137,,,
according,0.377509981,0.231997177,0.319187343,0.257842541,0.153723672,0.342196167,0.344365448,0.384633452,0.348762751,0.27731216,0.303753069,,,
philosophy,0.827732742,0.703498483,0.625097632,0.63231498,0.702036619,0.671007156,0.832532048,0.810734034,0.762683928,0.785121024,0.735275865,,,
right,0.60448122,0.581005812,0.444210231,0.488290876,0.430658549,0.557839036,0.53009367,0.573099315,0.44042486,0.489471078,0.513957465,,,
instead,0.400856882,0.257539839,0.211794123,0.220420942,0.353796631,0.321589619,0.359408915,0.428544134,0.158624619,0.33422929,0.304680499,,,
issue,0.621460736,0.474263906,0.406668007,0.31169948,0.439334542,0.589735448,0.518032074,0.500344217,0.501223624,0.498802423,0.486156446,,,
instance,0.451554149,0.288374037,0.238564417,0.184347585,0.35146901,0.272574067,0.379140943,0.395486176,0.299548239,0.283412993,0.314447162,,,
others,0.393408716,0.218707949,0.312082291,0.180713058,0.196325898,0.276390612,0.35693416,0.351167291,0.205915079,0.261517823,0.275316288,,,
event,0.67701906,0.498197436,0.579714358,0.461722761,0.527722597,0.587125242,0.588644445,0.595818222,0.513903379,0.583075523,0.561294302,,,
small,0.419591308,0.270506412,0.277383476,0.291408271,0.335847914,0.364135653,0.385438949,0.380323678,0.237213403,0.293923438,0.32557725,,,
distributed,0.592820108,0.509741902,0.308692008,0.131034687,0.285737962,0.292224616,0.583634257,0.54085201,0.208989367,0.25024128,0.37039682,,,
current,0.392488092,0.163019389,0.294384122,0.208327293,0.262729943,0.385166317,0.407397866,0.340266079,0.231051609,0.236123398,0.292095411,,,
window,0.737601101,0.67620343,0.313480526,0.462887347,0.573366761,0.49037239,0.752710342,0.752454937,0.481779516,0.554170847,0.57950272,,,
offer,0.699472487,0.404484898,0.418908894,0.444177359,0.529465318,0.505253613,0.676540732,0.718556046,0.427677035,0.611794174,0.543633056,,,
idea,0.619022906,0.50408119,0.433335841,0.442279428,0.462622464,0.494658619,0.6018399,0.525368392,0.458236635,0.436809152,0.497825453,,,
become,0.389905095,0.33247444,0.290880978,0.356828719,0.307156682,0.342294872,0.359845042,0.374053597,0.360468805,0.359284729,0.347319296,,,
pointer,0.756715536,0.72417134,0.417057037,0.280050844,0.478960454,0.19876577,0.895672202,0.655519247,0.264149755,0.326343268,0.499740545,,,
association,0.675429642,0.593791664,0.514031708,0.557639301,0.498161405,0.558176816,0.66279918,0.713771582,0.548591197,0.620483696,0.594287619,,,
error,0.691010773,0.556532085,0.498731613,0.476800382,0.623386323,0.573776722,0.808687031,0.657893121,0.519215882,0.54397285,0.595000678,,,
war,0.766635716,0.79051882,0.724992216,0.468931884,0.714300931,0.711735845,0.82083106,0.8230322,0.73190105,0.726481855,0.727936158,,,
text,0.687387526,0.492491573,0.498701453,0.472728521,0.557715893,0.543892503,0.739783645,0.65607363,0.559808373,0.541724443,0.575030756,,,
foundation,0.635173023,0.537279963,0.408463657,0.400859654,0.505268991,0.550645471,0.653275371,0.589968979,0.471977025,0.563723385,0.531663552,,,
team,0.766523361,0.725340724,0.695132792,0.595191002,0.660067618,0.73708111,0.709075868,0.729337454,0.64587909,0.726338029,0.698996705,,,
graduate,0.866363287,0.787947416,0.749027312,0.663217366,0.681863487,0.836311102,0.818390012,0.891711175,0.748511374,0.759652734,0.780299526,,,
sometimes,0.514901936,0.405276775,0.309665382,0.514193535,0.418156028,0.387244374,0.551221073,0.545637608,0.425669968,0.349604517,0.44215712,,,
protocol,0.85863471,0.422630787,0.49538368,0.522093534,0.753859699,0.504734039,0.850016296,0.808345854,0.459405541,0.471434206,0.614653835,,,
allow,0.562877893,0.414853811,0.31396386,0.312087297,0.528351128,0.438321859,0.55549401,0.519879758,0.383718729,0.397053093,0.442660144,,,
page,0.569795191,0.432970792,0.386753321,0.355673164,0.517418146,0.402156621,0.550135672,0.504175782,0.454391241,0.470910847,0.464438078,,,
special,0.409057021,0.274293154,0.257891297,0.309304208,0.340407759,0.242120981,0.371235549,0.367025286,0.202104896,0.158848435,0.293228859,,,
includes,0.441935837,0.335524261,0.310448617,0.362495095,0.393244237,0.429410756,0.488671869,0.491162598,0.292642266,0.328353703,0.387388924,,,
record,0.540208042,0.402513087,0.269553781,0.402331114,0.425471008,0.405751646,0.579724491,0.517376602,0.427318484,0.455745727,0.442599398,,,
allows,0.584051728,0.394383162,0.418866932,0.323690653,0.485688955,0.485064447,0.629052818,0.559722781,0.455098212,0.471066445,0.480668613,,,
free,0.454441547,0.328485489,0.346852362,0.301819384,0.297192901,0.353426963,0.492468923,0.47227627,0.193255082,0.242525563,0.348274449,,,
addition,0.394152075,0.13104941,0.073410302,0.149391502,0.245580733,0.265942156,0.329033762,0.407888561,0.118564412,0.204719305,0.231973222,,,
researcher,0.756146669,0.565819383,0.594790637,0.60200727,0.576051712,0.611116469,0.680802166,0.682918072,0.565579891,0.669861138,0.630509341,,,
introduced,0.361456573,0.234150082,0.214186415,0.232071847,0.237588435,0.253830671,0.431343317,0.420969188,0.223957166,0.201312497,0.281086619,,,
graph,0.820487738,0.684285462,0.4052369,0.416058064,0.584668696,0.616411567,0.751444995,0.851912618,0.340459824,0.546404421,0.601737028,,,
york,0.774171293,0.670855403,0.668742537,0.617931664,0.638061881,0.705615222,0.768354297,0.81577301,0.681859136,0.721023977,0.706238842,,,
simple,0.571993887,0.310504556,0.318119168,0.265795678,0.438843548,0.42065838,0.663028359,0.526189804,0.353634894,0.348750383,0.421751866,,,
mechanical,0.786906004,0.576917887,0.59230113,0.568325996,0.635925531,0.654714525,0.863210738,0.788322449,0.465193331,0.459206313,0.63910239,,,
built,0.590656996,0.499912798,0.48584643,0.511177838,0.562524498,0.446436793,0.678701818,0.62260735,0.473876297,0.576089442,0.544783026,,,
perform,0.637619138,0.428621203,0.341258377,0.334896535,0.433736712,0.345332056,0.663760364,0.631827056,0.389760077,0.376166672,0.458297819,,,
integrated,0.697069407,0.594961345,0.385375768,0.429933429,0.459050089,0.536525846,0.79900521,0.742945492,0.344206244,0.576561868,0.55656347,,,
abstract,0.587377369,0.354991138,0.564902961,0.417267889,0.596704543,0.525390446,0.712239683,0.496283114,0.421464622,0.440620959,0.511724272,,,
range,0.660425842,0.456079543,0.326942384,0.38625595,0.470147699,0.521405935,0.62952286,0.530280173,0.408275902,0.414637357,0.480397364,,,
dynamic,0.599918723,0.537560165,0.394992679,0.456050545,0.431213379,0.452993363,0.689462066,0.640610158,0.411100805,0.388642073,0.500254396,,,
block,0.470919788,0.359882325,0.130881011,0.211940274,0.333523333,0.442222565,0.607500196,0.427454472,0.226923212,0.329955131,0.354120231,,,
action,0.663965285,0.275914699,0.415289611,0.278645098,0.483409464,0.488355279,0.499484777,0.511647701,0.363399655,0.343058467,0.432317004,,,
around,0.479084104,0.386974335,0.336481214,0.325171769,0.443950623,0.421532989,0.487551302,0.483536571,0.397458643,0.391690075,0.415343162,,,
medical,0.785770059,0.684339345,0.693877518,0.66724664,0.687740505,0.721986532,0.710341811,0.682774782,0.739031732,0.574517846,0.694762677,,,
place,0.405490339,0.28833276,0.331935346,0.351066887,0.313916743,0.312089175,0.288268089,0.373698711,0.352360904,0.328795224,0.334595418,,,
engine,0.78251487,0.581268013,0.526986301,0.443369448,0.691808343,0.606360853,0.754879892,0.65634799,0.441809773,0.654068053,0.613941354,,,
best,0.64038986,0.493037879,0.398338079,0.434510291,0.583126009,0.494990081,0.58528173,0.652844608,0.497676492,0.579090953,0.535928598,,,
return,0.38227722,0.302434504,0.209190816,0.20601666,0.231379792,0.255897135,0.389472783,0.360338688,0.266704649,0.22965546,0.283336771,,,
principle,0.653776467,0.565720141,0.541497886,0.518348753,0.456511348,0.437067956,0.610422492,0.606757998,0.499909818,0.532866776,0.542287964,,,
certain,0.584121525,0.491716415,0.409933925,0.38912645,0.462080956,0.463979304,0.582496583,0.532500207,0.46391207,0.45816505,0.483803248,,,
focus,0.661827624,0.429213196,0.415101677,0.348209798,0.501877725,0.457360774,0.544568181,0.545083344,0.478686333,0.553056419,0.493498507,,,
ontology,0.890193164,0.541581094,0.546398222,1,0.628147602,0.435404092,0.781594038,0.737911344,0.533445001,0.709363937,0.680403849,,,
cpu,0.718270123,0.778688192,0.57856524,0.684938014,0.848747671,1,0.914220154,0.855305076,0.756222486,0.610526502,0.774548346,,,
role,0.63780272,0.541441381,0.435332507,0.403431535,0.528627932,0.485665232,0.578216612,0.632548571,0.501954973,0.5220083,0.526702976,,,
algebra,0.817440271,0.760991812,0.471940905,0.526877165,0.754288435,0.61521703,0.855928123,0.793167233,0.466743916,0.489067525,0.655166242,,,
child,0.641500473,0.600319564,0.669255197,0.58231926,0.626928389,0.605184376,0.635445654,0.637890518,0.633478463,0.580863535,0.621318543,,,
making,0.443517715,0.243043646,0.210829288,0.240492567,0.147133142,0.333773792,0.309463412,0.35406357,0.194900379,0.241696969,0.271891448,,,
server,0.811407208,0.813188255,0.661451519,0.74273473,0.824500978,0.758638084,0.892500758,0.829863429,0.607359111,0.620161593,0.756180567,,,
statement,0.570264041,0.430267215,0.41848737,0.367733002,0.47753638,0.505209327,0.628174067,0.451532781,0.321698308,0.375955582,0.454685807,,,
community,0.645046771,0.532990992,0.559201777,0.535166085,0.548643291,0.525883734,0.563981175,0.613143444,0.552817822,0.575321853,0.565219694,,,
domain,0.763145506,0.442476004,0.320784539,0.285814971,0.421990454,0.261782199,0.661596775,0.606195092,0.470237851,0.35909152,0.459311491,,,
local,0.63207078,0.448589146,0.401249558,0.407844394,0.427412242,0.423787236,0.448041141,0.477429241,0.406657666,0.455468565,0.452854997,,,
note,0.397280693,0.203490481,0.316566646,0.349878907,0.277695745,0.242803529,0.343609452,0.389335811,0.285451919,0.25490734,0.306102052,,,
location,0.594168305,0.428507924,0.288155586,0.445247501,0.525917828,0.399682522,0.61647743,0.491159856,0.422639787,0.424809903,0.463676664,,,
technical,0.643995285,0.383983433,0.445147842,0.505064785,0.455191314,0.513035834,0.69436866,0.728347838,0.367281377,0.541862667,0.527827904,,,
global,0.682991505,0.475356072,0.443181962,0.536174357,0.469921201,0.585032344,0.531942666,0.577161908,0.449157745,0.489313692,0.524023345,,,
behavior,0.784105301,0.591630518,0.636987984,0.446246922,0.715530336,0.636352897,0.723590493,0.614616156,0.621999025,0.684102118,0.645516175,,,
health,0.874299407,0.780570388,0.764278829,0.760951281,0.752895892,0.775853515,0.819167852,0.812967837,0.757063806,0.759673178,0.785772198,,,
java,0.720001101,0.43615225,0.296352059,0.241681203,0.472570986,0.335577607,0.666193902,0.629704952,0.249277726,0.220276475,0.426778826,,,
provides,0.593675375,0.294546902,0.540384173,0.400529087,0.45248419,0.408252329,0.586579978,0.583753347,0.495512426,0.436198503,0.479191631,,,
create,0.605643451,0.446574807,0.355448008,0.312907517,0.563327134,0.459222227,0.564403653,0.576049924,0.417238772,0.389344335,0.469015983,,,
store,0.582735777,0.444055647,0.453671277,0.324848861,0.396581888,0.358622968,0.725818396,0.572530091,0.459536195,0.46471855,0.478311965,,,
author,0.664943635,0.529806197,0.529706657,0.563392818,0.492245108,0.454768896,0.699348032,0.746001303,0.593905509,0.620743036,0.589486119,,,
representation,0.626916409,0.44495669,0.457911193,0.455483764,0.389272809,0.357684821,0.588032961,0.561521769,0.41243884,0.345944583,0.464016384,,,
began,0.547748387,0.431421131,0.413282752,0.409061998,0.434354424,0.504347324,0.548267126,0.516810536,0.453910977,0.471838117,0.473104277,,,
personal,0.602354825,0.405298918,0.407042414,0.380545378,0.428391725,0.365933478,0.73196435,0.64271313,0.368008554,0.461579114,0.479383188,,,
subject,0.651056945,0.42307207,0.370643348,0.399048477,0.349336475,0.539529622,0.664052546,0.679919839,0.37854889,0.507829666,0.496303788,,,
interaction,0.732235312,0.533118904,0.527359009,0.454708844,0.607322931,0.606214762,0.78706944,0.671607494,0.580687046,0.584523261,0.6084847,,,
video,0.806708634,0.691686928,0.698676646,0.602613866,0.671496689,0.718833685,0.788438559,0.789099634,0.686256766,0.666874051,0.712068546,,,
transistor,0.918058097,0.83782053,0.848737597,0.724892855,0.851537585,0.801617682,0.945402443,0.92497021,0.713732243,0.816855788,0.838362503,,,
article,0.612154067,0.448916644,0.459614426,0.493199259,0.506614745,0.451420963,0.619161427,0.582212508,0.539731383,0.514561832,0.522758725,,,
described,0.330784529,0.21988897,0.152457967,0.243989572,0.255010277,0.225309044,0.362277925,0.437439263,0.259943634,0.277077168,0.276417835,,,
born,0.685991228,0.751796663,0.662944198,0.734216571,0.669000089,0.69772023,0.776339829,0.730598986,0.70170027,0.690996647,0.710130471,,,
integer,0.816454172,0.682126403,0.715725958,0.734850049,0.697313249,0.697743952,0.853948593,0.767019153,0.6096825,0.637766302,0.721263033,,,
report,0.624436915,0.495969057,0.496343911,0.433633745,0.481213838,0.530207038,0.617550433,0.601004422,0.500988185,0.558036804,0.533938435,,,
help,0.57825011,0.499807745,0.438367486,0.409425914,0.524276018,0.55143261,0.57133019,0.533521056,0.478555441,0.488541186,0.507350776,,,
parameter,0.77150774,0.617916822,0.419133306,0.416606605,0.479750574,0.525775075,0.682856083,0.677651525,0.451275051,0.511678576,0.555415136,,,
next,0.432024717,0.33385554,0.258370817,0.225949168,0.206640199,0.329063416,0.336588055,0.325043947,0.226108596,0.275502294,0.294914675,,,
industry,0.810736299,0.658678651,0.64608407,0.729923189,0.659559608,0.722357333,0.706980109,0.752637863,0.63792187,0.684486866,0.700936586,,,
institution,0.739849985,0.534870088,0.623017311,0.599901259,0.69950062,0.657982826,0.855383694,0.818729997,0.708874762,0.756780565,0.699489111,,,
stored,0.658081353,0.568622828,0.417616606,0.478268027,0.654541433,0.445580453,0.791364074,0.657467306,0.487156034,0.51227355,0.567097166,,,
complete,0.489685357,0.298861742,0.110705599,0.195317537,0.213133186,0.25443548,0.545778394,0.524929643,0.153191447,0.395791531,0.318182991,,,
purpose,0.500394404,0.473807037,0.229144469,0.366466045,0.418326497,0.386871696,0.592619181,0.546822429,0.443977118,0.370597988,0.432902686,,,
david,0.656138837,0.611390233,0.57979238,0.522913218,0.544365346,0.500053525,0.771158695,0.750697672,0.537305117,0.614873469,0.608868849,,,
position,0.529520452,0.327030927,0.352662057,0.313695967,0.332214355,0.480902135,0.498549312,0.570238531,0.416719139,0.420820653,0.424235353,,,
material,0.679435194,0.59125191,0.506400526,0.527198434,0.430080473,0.546413839,0.800893962,0.796902716,0.527513564,0.541802347,0.594789296,,,
context,0.606617868,0.460623443,0.399362206,0.421591997,0.474020094,0.434939563,0.558483481,0.469798207,0.398096383,0.41152519,0.463505843,,,
british,0.668402076,0.704233706,0.564979613,0.620142817,0.546430886,0.599532843,0.727645755,0.732785642,0.532178462,0.637206197,0.6333538,,,
boolean,0.796822786,0.787537873,1,1,0.751456439,0.589069247,0.808976531,0.717029035,1,1,0.845089191,,,
meaning,0.634865105,0.466941893,0.369476914,0.45364666,0.549612105,0.492693216,0.586752057,0.531344891,0.466161191,0.503588557,0.505508259,,,
day,0.47450605,0.51134634,0.439881355,0.391364753,0.456741095,0.450367332,0.468645632,0.479451776,0.42455551,0.456358135,0.455321798,,,
family,0.64663285,0.549212277,0.536861598,0.502125025,0.474761307,0.527896106,0.431847483,0.402619332,0.414995521,0.533280432,0.502023193,,,
parallel,0.491060823,0.562744498,0.039028253,0.202299312,0.313271582,0.310690939,0.605952859,0.653813422,0.28499186,0.251425892,0.371527944,,,
activity,0.720408201,0.524511814,0.455238938,0.483667523,0.51960355,0.599783063,0.68154937,0.713393629,0.597406089,0.59526372,0.58908259,,,
abstraction,0.733192444,0.515812457,0.454046518,0.463997304,0.49445197,0.476918876,0.795764446,0.685772479,0.568297565,0.499783367,0.568803743,,,
included,0.185170546,0.167670175,0.059780922,0.148925766,0.158598945,0.220557481,0.265600771,0.275421768,0.113969319,0.109084643,0.170478034,,,
led,0.476115167,0.407137841,0.351588964,0.347354859,0.368272305,0.447802782,0.473738432,0.512849271,0.386636078,0.449097991,0.422059369,,,
electrical,0.864310265,0.648682237,0.598206282,0.625682175,0.587747335,0.70950824,0.86310178,0.872924149,0.578965187,0.598305464,0.694743311,,,
home,0.600125074,0.479840279,0.509395719,0.420704424,0.471547574,0.489806801,0.547727883,0.575257897,0.437981397,0.523432553,0.50558196,,,
might,0.542407334,0.397804946,0.294996619,0.380723059,0.454402477,0.404030472,0.516118944,0.448713839,0.403135538,0.413272947,0.425560617,,,
long,0.211240709,0.193191916,0.126939327,0.215456039,0.318044275,0.401622593,0.285261333,0.311677337,0.301577419,0.215244517,0.258025546,,,
argument,0.622988522,0.310156226,0.405879229,0.323034346,0.417965204,0.4566845,0.704991817,0.494936675,0.424320668,0.440806627,0.460176381,,,
relationship,0.714677036,0.500098109,0.420935303,0.395654827,0.418552756,0.504746497,0.502331078,0.456092894,0.484465301,0.553255796,0.49508096,,,
prize,0.938550353,0.776359022,0.737869024,0.635167837,0.659897745,0.733872116,0.896342814,0.916942418,0.613011777,0.862966537,0.777097964,,,
board,0.746521592,0.600408673,0.50556314,0.486818641,0.582300425,0.578386009,0.717706144,0.77134037,0.484567136,0.635051787,0.610866392,,,
cost,0.715623379,0.609415233,0.597864985,0.567040801,0.69547981,0.682083786,0.764127254,0.728071988,0.613066316,0.675171494,0.664794505,,,
established,0.661858141,0.496098757,0.426039666,0.39592573,0.387740642,0.484579772,0.612930119,0.6340909,0.454527348,0.536338389,0.509012946,,,
per,0.687429488,0.557166576,0.629122853,0.60062474,0.624339938,0.637601137,0.70374769,0.669635594,0.644489288,0.641586304,0.639574361,,,
commonly,0.491336584,0.365483433,0.303097486,0.373762667,0.436529219,0.395033687,0.546595395,0.495471835,0.395418912,0.368643433,0.417137265,,,
whether,0.544167995,0.522124648,0.377515495,0.402825028,0.545242488,0.473636299,0.503146648,0.532305896,0.496314764,0.483819067,0.488109833,,,
show,0.497223854,0.419583499,0.269109398,0.245488465,0.354193181,0.433892667,0.393648058,0.405806333,0.4592022,0.401119202,0.387926686,,,
condition,0.618560493,0.516938567,0.446467638,0.472012609,0.523391008,0.518966317,0.590141058,0.576039135,0.427892625,0.460678965,0.515108842,,,
via,0.519261837,0.127185315,0.320720702,0.207419097,0.427529305,0.292186797,0.428868681,0.404305398,0.218164474,0.334911197,0.32805528,,,
body,0.559835374,0.473080248,0.364864916,0.385356843,0.481923521,0.425476938,0.56867218,0.596231997,0.404683083,0.502497971,0.476262307,,,
named,0.387900114,0.199698433,0.28371197,0.277448565,0.199210048,0.298002273,0.291694969,0.295711488,0.182555884,0.28131187,0.269724561,,,
press,0.748991847,0.666784704,0.609946728,0.577530205,0.584310174,0.576136768,0.720235646,0.706468344,0.509129167,0.624759734,0.632429332,,,
google,0.774778306,0.843548357,0.695752084,0.528459847,0.713261724,0.606018841,0.801185191,0.770295799,0.642474115,0.703764379,0.707953864,,,
content,0.802052319,0.516961098,0.517634809,0.390998334,0.536344528,0.544494987,0.745150208,0.609836102,0.647214115,0.43587786,0.574656436,,,
operator,0.619588077,0.417605042,0.103885487,0.380107015,0.499831587,0.447710276,0.608697534,0.508853018,0.201784983,0.3379893,0.412605232,,,
acm,0.849943876,0.685634375,0.523057401,0.472182184,0.59108001,0.63966912,0.84703958,0.727619886,1,0.562485278,0.689871171,,,
training,0.689676344,0.60037446,0.59589833,0.647893071,0.495602667,0.600183308,0.682049274,0.763639033,0.56588757,0.506548464,0.614775252,,,
symbol,0.620474696,0.506703317,0.394407749,0.331114531,0.466466993,0.451829463,0.613568544,0.674114347,0.363016576,0.466617227,0.488831344,,,
functional,0.505279362,0.487619191,0.279762238,0.177189365,0.433678776,0.414184034,0.617785931,0.46782884,0.410023272,0.261240959,0.405459197,,,
question,0.722232103,0.594041049,0.452553183,0.484239131,0.606491685,0.605756879,0.683366597,0.646012247,0.587231159,0.61033529,0.599225932,,,
provided,0.476469845,0.203544602,0.263192058,0.294842631,0.25143677,0.307774007,0.437000275,0.396358728,0.266133636,0.341409326,0.323816188,,,
released,0.623449564,0.602262914,0.374532253,0.510983527,0.701909661,0.57969439,0.62381047,0.616677046,0.537010193,0.526338458,0.569666848,,,
though,0.40933615,0.319663316,0.336114615,0.375343025,0.32856068,0.27920258,0.369978189,0.376458019,0.273038477,0.266436428,0.333413148,,,
said,0.43951425,0.392230093,0.327912927,0.460199207,0.387021601,0.332236767,0.392883569,0.485162646,0.381176621,0.373412818,0.39717505,,,
read,0.455983996,0.396290749,0.455368698,0.356262386,0.444758832,0.402288139,0.677959144,0.598779857,0.432984084,0.497939765,0.471861565,,,
least,0.498104542,0.352917254,0.186354682,0.347965121,0.353471905,0.372719973,0.341494292,0.401114643,0.322894961,0.354974717,0.353201209,,,
step,0.52623421,0.441178024,0.331945777,0.293257087,0.322747141,0.332173854,0.549099803,0.522053301,0.330191791,0.433419228,0.408230022,,,
index,0.840871215,0.651135743,0.669664025,0.574436665,0.533991158,0.602739513,0.653559446,0.733071983,0.615525961,0.659535468,0.653453118,,,
decision,0.614997983,0.451984972,0.45584017,0.459334731,0.450168014,0.533969164,0.545937002,0.628371418,0.502646267,0.48460418,0.51278539,,,
significant,0.520938396,0.419675648,0.410030365,0.375831604,0.390743822,0.344495356,0.521314859,0.445711046,0.421574712,0.450280249,0.430059606,,,
act,0.674389303,0.62773335,0.545066476,0.537508368,0.423832476,0.537837386,0.606010139,0.624459982,0.565602958,0.538633943,0.568107438,,,
goal,0.744225681,0.497754335,0.555543065,0.567308784,0.549225092,0.615780771,0.665290713,0.675376654,0.444814593,0.547953129,0.586327282,,,
implemented,0.448438019,0.386395305,0.3768076,0.270989984,0.370510191,0.348878771,0.574296236,0.492231339,0.251494765,0.340441614,0.386048383,,,
format,0.764081657,0.519269168,0.497446775,0.486697197,0.628408372,0.438000649,0.807661176,0.744348049,0.447069436,0.611340106,0.594432259,,,
description,0.395621002,0.352302402,0.253784329,0.325407743,0.370421082,0.279987305,0.570749998,0.512842774,0.34486717,0.393616587,0.379960039,,,
scope,0.538587511,0.501049459,0.455628604,0.246265784,0.373131305,0.254730284,0.510366201,0.409149379,0.286305815,0.419346213,0.399456055,,,
real,0.618842244,0.31289959,0.383018732,0.344662845,0.392336607,0.394758075,0.544367552,0.523961186,0.275066465,0.332294643,0.412220794,,,
rate,0.838146865,0.682957053,0.654163361,0.734786272,0.803698003,0.839350104,0.757702589,0.743509471,0.760830164,0.764150321,0.75792942,,,
english,0.650004864,0.551860094,0.583569825,0.541478455,0.518700898,0.439189494,0.693904579,0.70548749,0.525241554,0.618787408,0.582822466,,,
virtual,0.756401539,0.371079206,0.422727823,0.418167114,0.609560907,0.528877735,0.783135533,0.684310734,0.513102591,0.579402328,0.566676551,,,
force,0.655867875,0.599421322,0.601935446,0.487229317,0.543926716,0.604375303,0.675551772,0.650666833,0.583967328,0.568605065,0.597154698,,,
testing,0.717798471,0.55045712,0.447891623,0.543592811,0.615084767,0.643049717,0.743917823,0.75919652,0.477060378,0.623622417,0.612167165,,,
together,0.371918261,0.290301859,0.229063079,0.199226871,0.287187457,0.172171831,0.250257134,0.333818406,0.241990149,0.194900244,0.257083529,,,
TRUE,0.625359356,0.429487109,0.315298557,0.272610486,0.238618642,0.396603078,0.593060911,0.501790464,0.221386239,0.351520061,0.39457349,,,
module,0.52320534,0.723848701,0.358904421,0.56072104,0.488293111,0.52409333,0.578048825,0.628181934,0.441554397,0.501393557,0.532824466,,,
undergraduate,0.923286557,0.802545667,0.852088749,0.769870818,0.788274765,0.869282126,0.8950001,0.892423391,0.84424144,0.87868613,0.851569974,,,
execution,0.614100635,0.551039875,0.220107034,0.313435465,0.47370261,0.314935416,0.745877087,0.688415468,0.467690408,0.296347141,0.468565114,,,
able,0.564499915,0.447214991,0.448142707,0.420619637,0.565351605,0.495590061,0.577275038,0.536484838,0.418275893,0.501997113,0.49754518,,,
command,0.705310404,0.573537469,0.443496376,0.50911063,0.615702093,0.498047471,0.675581217,0.58705461,0.482173771,0.597326875,0.568734092,,,
produce,0.543384254,0.344578415,0.396293879,0.418057323,0.393075883,0.382713974,0.550543368,0.502000272,0.313251913,0.403524876,0.424742416,,,
laboratory,0.721877694,0.662979186,0.578851044,0.673907042,0.63358295,0.688868046,0.813468397,0.792418301,0.486018211,0.618843615,0.667081448,,,
requires,0.584696472,0.53166008,0.404491633,0.554055691,0.492065668,0.50874126,0.621292174,0.536556423,0.48311609,0.539485514,0.5256161,,,
cause,0.671045959,0.52871412,0.487105191,0.363455892,0.54910332,0.537605047,0.648239195,0.61236918,0.626993299,0.589883626,0.561451483,,,
relation,0.611042321,0.424105555,0.433864504,0.418440163,0.31978178,0.356058836,0.469596416,0.513162076,0.432298511,0.369032621,0.434738278,,,
doctor,0.822638392,0.6987499,0.517438471,0.651441813,0.780114412,0.607635438,0.767080605,0.82404691,0.638920248,0.653901994,0.696196818,,,
director,0.782764196,0.697117686,0.637789488,0.640995383,0.676475227,0.700909078,0.766778648,0.792296708,0.586237729,0.725071907,0.700643605,,,
back,0.446940511,0.510755539,0.301421493,0.416398317,0.383873075,0.497720838,0.457448274,0.466489077,0.374137074,0.3944484,0.42496326,,,
person,0.636009693,0.549983144,0.550063968,0.527953804,0.501639128,0.522672951,0.573040545,0.581151843,0.406205028,0.50590235,0.535462245,,,
signal,0.777065575,0.645982504,0.418800294,0.574158728,0.677039146,0.66152364,0.802450001,0.815868139,0.557037711,0.604927063,0.65348528,,,
directly,0.409314811,0.277741283,0.207770318,0.277636647,0.25056392,0.365490645,0.406978756,0.425137401,0.236188322,0.327038199,0.31838603,,,
late,0.613902748,0.569140136,0.542789876,0.458453238,0.556407928,0.559808433,0.633187473,0.512210727,0.459245086,0.522904456,0.54280501,,,
nature,0.689346254,0.546186447,0.411505818,0.421931595,0.43099916,0.552985191,0.651431322,0.554464102,0.519036829,0.562027156,0.533991387,,,
procedure,0.584619761,0.508551061,0.415326774,0.403526813,0.488431931,0.537064433,0.627783716,0.559185743,0.420825064,0.612547934,0.515786323,,,
stack,0.610613406,0.422632247,0.292553008,0.332081527,0.554933429,0.263823897,0.688029528,0.647598743,0.216196537,0.279475719,0.430793804,,,
give,0.371849746,0.228798762,0.298829943,0.227710173,0.301788241,0.328035444,0.34249562,0.418833733,0.269927025,0.266609609,0.305487829,,,
therefore,0.501850903,0.312136412,0.360520422,0.307094991,0.371652395,0.325319737,0.43065846,0.422398508,0.27628684,0.342180371,0.365009904,,,
india,0.862518311,0.759015501,0.691243947,0.784658909,0.806219101,0.75310874,0.811278403,0.846512079,0.738164067,0.699535966,0.775225502,,,
central,0.508158147,0.371771514,0.417936385,0.357172877,0.454354167,0.461693048,0.503064752,0.551350713,0.436536551,0.499569714,0.456160787,,,
require,0.652650476,0.503506005,0.465462506,0.471643955,0.526439011,0.566755354,0.68793577,0.598988831,0.510065258,0.547797501,0.553124467,,,
political,0.784281254,0.689350486,0.676713467,0.598370433,0.628509581,0.630382299,0.810319185,0.795005381,0.728643477,0.835885644,0.717746121,,,
amount,0.61732024,0.51289171,0.449754745,0.499580592,0.587462842,0.561166048,0.608209252,0.58646816,0.55904603,0.57025522,0.555215484,,,
ability,0.675402761,0.500268638,0.485238403,0.505193472,0.533327699,0.63616246,0.657721281,0.581701338,0.526809871,0.495882183,0.559770811,,,
requirement,0.740094185,0.653590858,0.470384419,0.602386713,0.686794043,0.636006773,0.780833304,0.760814369,0.557582736,0.648829043,0.653731644,,,
card,0.801056445,0.491416276,0.505667508,0.562484801,0.666931152,0.549186945,0.841150582,0.813431144,0.476773858,0.675387204,0.638348591,,,
find,0.494138896,0.330399722,0.384064287,0.373459905,0.45074144,0.475033998,0.471563786,0.487091213,0.375346959,0.375010967,0.421685117,,,
policy,0.771583259,0.67014575,0.599139452,0.536842227,0.702601731,0.687574148,0.782444775,0.793680727,0.640357435,0.754748881,0.693911839,,,
job,0.807456732,0.666655779,0.655287564,0.697333634,0.657767534,0.5509184,0.735331237,0.742895722,0.621367872,0.656595528,0.679161,,,
mark,0.499327004,0.296125531,0.234241366,0.323664427,0.334561348,0.37057218,0.657880723,0.567408323,0.15398483,0.353930533,0.379169627,,,
south,0.779204309,0.686457634,0.649877369,0.536261737,0.704751432,0.68259573,0.756241679,0.755013764,0.639782727,0.683379352,0.687356573,,,
period,0.650403798,0.541203856,0.45769158,0.56345284,0.492478043,0.500873923,0.61152035,0.60165441,0.571561217,0.548348248,0.553918827,,,
hash,0.78976351,0.772120595,0.413801074,0.312581956,0.651224911,1,0.733016372,0.569835961,0.308133483,1,0.655047786,,,
base,0.422377735,0.293725282,0.207722217,0.284888476,0.178821221,0.25590378,0.375534981,0.30046919,0.094436638,0.136168838,0.255004836,,,
associated,0.442430884,0.273882508,0.145734593,0.21411787,0.254532933,0.339557976,0.365578473,0.379104644,0.349024773,0.313599676,0.307756433,,,
academy,0.766325295,0.628160417,0.605478942,0.637200594,0.645438254,0.475091189,0.721715629,0.773946345,0.520726442,0.715619504,0.648970261,,,
medicine,0.883137345,0.748207986,0.681821406,0.607833445,0.706557751,0.773588657,0.77636981,0.850502908,0.799113572,0.695719182,0.752285206,,,
factor,0.695987046,0.529867828,0.440624684,0.526551187,0.500451803,0.569629848,0.616402626,0.631407142,0.525031388,0.603284836,0.563923839,,,
microsoft,0.816424012,0.650524616,0.569267452,0.704848886,0.782897651,0.711905122,0.849956274,0.797135174,0.6817469,0.764897943,0.732960403,,,
robert,0.595782459,0.568813622,0.650212586,0.520569324,0.424868137,0.498236418,0.788421929,0.714446485,0.510356545,0.655060649,0.592676815,,,
popular,0.540085316,0.459932655,0.374420851,0.407559484,0.454191983,0.47251752,0.495040417,0.466812938,0.498843819,0.41600135,0.458540633,,,
top,0.635816574,0.445110977,0.617869437,0.481725514,0.455914229,0.5177809,0.592895508,0.65888983,0.443425149,0.601345301,0.545077342,,,
biology,0.906455576,0.744942188,0.7275424,0.660811603,0.762767553,0.744955957,0.839169502,0.839941978,0.779743373,0.873771429,0.788010156,,,
along,0.17319268,0.197486028,0.12852788,0.203451768,0.118546031,0.230821222,0.243507355,0.224380866,0.024095206,0.174314022,0.171832306,,,
received,0.624934554,0.509800494,0.399061531,0.38928169,0.524947584,0.537626505,0.599460244,0.657003343,0.335996538,0.582564116,0.51606766,,,
increase,0.732789159,0.55641675,0.534343004,0.594114125,0.650705576,0.679792583,0.680570841,0.686592519,0.564496398,0.582146823,0.626196778,,,
done,0.394178718,0.180394784,0.196088433,0.208253697,0.239201307,0.280197263,0.349004626,0.397048861,0.184733897,0.352934211,0.27820358,,,
c++,0.843055189,0.748252273,1,1,0.674071908,0.705784798,0.869432628,0.727750301,1,1,0.85683471,,,
limited,0.503091753,0.28751564,0.361437976,0.254805326,0.396141052,0.312038481,0.511635184,0.370643586,0.284664989,0.231828034,0.351380202,,,
additional,0.471515685,0.136304766,0.130692557,0.275743991,0.21844171,0.276608884,0.399888903,0.373018742,0.292229623,0.308343828,0.288278869,,,
market,0.750340164,0.683456123,0.58316344,0.603732347,0.652339101,0.675421953,0.670724332,0.661579251,0.573633552,0.620737672,0.647512794,,,
view,0.573597789,0.403311312,0.448598623,0.423050135,0.434499562,0.375151724,0.506141663,0.500051856,0.429594308,0.438566417,0.453256339,,,
kind,0.402609915,0.284742653,0.278859526,0.260546178,0.338070899,0.272109538,0.423915774,0.361522079,0.350367099,0.251239359,0.322398302,,,
fundamental,0.620038867,0.475018948,0.376972288,0.445222139,0.371799439,0.392920941,0.595754504,0.604878306,0.339670688,0.363453269,0.458572939,,,
aspect,0.597496212,0.445511758,0.351805627,0.384521902,0.446680367,0.390494257,0.583619416,0.584148884,0.42124939,0.42376709,0.46292949,,,
referred,0.402329028,0.214338645,0.17640765,0.32823202,0.351825774,0.236240804,0.478854328,0.446060002,0.223537579,0.270293504,0.312811933,,,
awarded,0.823610008,0.709280729,0.586701393,0.715471864,0.665474355,0.654513121,0.82136786,0.790202379,0.583984375,0.733153462,0.708375955,,,
register,0.47581622,0.3356359,0.317473829,0.320439875,0.475666791,0.384605676,0.868879437,0.74481374,0.287134618,0.382486463,0.459295255,,,
framework,0.711404026,0.536891043,0.450112879,0.480052143,0.417680442,0.404025614,0.762253761,0.66458565,0.406838447,0.548383296,0.53822273,,,
last,0.360655248,0.298436284,0.254357815,0.29690966,0.221205473,0.241329253,0.285457283,0.31789121,0.219974771,0.274218082,0.277043508,,,
advanced,0.59174794,0.452517688,0.377473593,0.276270002,0.453196615,0.452515513,0.634122014,0.652562797,0.292642742,0.462618589,0.464566749,,,
specification,0.77619338,0.524759769,0.372692436,0.413859665,0.630673945,0.576798081,0.764259875,0.60631609,0.385555089,0.482973486,0.553408182,,,
especially,0.538208067,0.504317045,0.369615734,0.439749151,0.434684634,0.383916199,0.534137845,0.494495183,0.484238625,0.451120406,0.463448289,,,
publication,0.665639997,0.549023926,0.480177671,0.404059917,0.428706855,0.444013476,0.680226743,0.594636142,0.542331278,0.598401427,0.538721743,,,
interest,0.587249696,0.389817059,0.301533371,0.287463635,0.326435477,0.387459964,0.423032731,0.45689258,0.434831738,0.406605512,0.400132176,,,
wide,0.672902107,0.384099513,0.345446527,0.329803795,0.467437625,0.536752701,0.713687718,0.574275076,0.467986792,0.436066508,0.492845836,,,
simulation,0.829734862,0.705662727,0.691953778,0.648045182,0.699412048,0.755061507,0.79374814,0.794059038,0.643173397,0.626043618,0.71868943,,,
needed,0.571109176,0.380991131,0.427585214,0.45536691,0.384793341,0.448570669,0.62764281,0.482025027,0.405636013,0.380659521,0.456437981,,,
separate,0.446157813,0.393932223,0.153006911,0.172565654,0.280966431,0.258363426,0.400443822,0.381181777,0.192709669,0.334228843,0.301355657,,,
lead,0.453893304,0.322018623,0.196493864,0.301849633,0.313225329,0.394210607,0.416882098,0.385959297,0.24627088,0.389138162,0.34199418,,,
north,0.726719797,0.650454044,0.613298357,0.539157748,0.612105668,0.639577866,0.684253812,0.699556768,0.55233556,0.621190548,0.633865017,,,
proposed,0.56523937,0.376735717,0.216133893,0.341394335,0.302078903,0.382052243,0.54096961,0.480132699,0.296503991,0.368317693,0.386955845,,,
core,0.387233406,0.478292495,0.189421549,0.171322405,0.32451418,0.196127743,0.66426158,0.644060671,0.338829011,0.39474833,0.378881137,,,
office,0.673468232,0.586698651,0.566767514,0.493898571,0.600852489,0.564585209,0.713832319,0.704910755,0.569298863,0.634425759,0.610873836,,,
apple,0.73226589,0.723507166,0.571359634,0.706600487,0.736671627,0.511124074,0.86113137,0.809465826,0.652409017,0.559695601,0.686423069,,,
mathematician,0.868769348,0.752709806,0.733747602,0.766574442,0.755046368,0.78315109,0.869390011,0.894313633,0.827586472,0.826464295,0.807775307,,,
indian,0.820307612,0.688210726,0.752833545,0.613462985,0.722056031,0.714646876,0.879087329,0.852748811,0.72671634,0.586173475,0.735624373,,,
equivalent,0.56000644,0.380322486,0.291992366,0.343251705,0.332973033,0.266888022,0.535208285,0.595821142,0.283234179,0.456620902,0.404631856,,,
music,0.792318344,0.737227201,0.686863124,0.727828145,0.741607308,0.72760123,0.807366967,0.823236108,0.754588187,0.766905725,0.756554234,,,
fact,0.480453163,0.355313241,0.256733477,0.328679323,0.266819328,0.276027054,0.312060773,0.376760215,0.277836442,0.228008404,0.315869142,,,
reading,0.536269903,0.379878134,0.491255343,0.457463592,0.447821379,0.430281311,0.52380693,0.55893147,0.408399612,0.436313361,0.467042103,,,
mechanism,0.689457178,0.517891407,0.476582438,0.488419086,0.577263772,0.529389977,0.777337849,0.693446934,0.483757675,0.491137803,0.572468412,,,
equation,0.885492861,0.818751335,0.707626581,0.746332109,0.752410769,0.773936033,0.879089415,0.889297247,0.593957603,0.821268201,0.786816216,,,
platform,0.71591109,0.584087312,0.548901618,0.341091841,0.614557624,0.50205934,0.665670693,0.621443152,0.395518422,0.565839112,0.555508021,,,
section,0.310968816,0.349326402,0.192708492,0.209226832,0.094264135,0.267760396,0.299163818,0.384499937,0.116003953,0.29708162,0.25210044,,,
statistic,0.865380466,0.552655816,0.51980108,0.512662351,0.658749402,0.645044386,0.752085268,0.788725495,0.492968887,0.723424494,0.651149765,,,
hall,0.839233398,0.637232363,0.743795574,0.664947689,0.635864973,0.685177088,0.769855559,0.820584953,0.655632555,0.8336761,0.728600025,,,
2011,0.512710154,0.460018992,0.511286497,0.341075242,0.445698678,0.473228306,0.483287543,0.48749429,0.394806951,0.377843857,0.448745051,,,
logical,0.777344465,0.662715256,0.506608129,0.336476564,0.561558783,0.590414464,0.843372405,0.77260083,0.668752253,0.566426098,0.628626925,,,
difference,0.526120543,0.29546544,0.350791395,0.392370671,0.312030017,0.381253332,0.46963498,0.471951425,0.341126084,0.322942585,0.386368647,,,
disk,0.743712068,0.716508031,0.531344891,0.455496073,0.673910677,0.46228978,0.890590787,0.76689738,0.549535751,0.578132868,0.636841831,,,
chemistry,0.881562531,0.737802207,0.71939224,0.611867785,0.726609945,0.719914794,0.834643543,0.899229169,0.751891017,0.824754536,0.770766777,,,
left,0.359547436,0.196873352,0.116864592,0.175257593,0.292918593,0.299125284,0.334302694,0.355993301,0.258772582,0.275039583,0.266469501,,,
total,0.626585662,0.453268826,0.469196677,0.48031947,0.55278641,0.560375094,0.557868004,0.596912324,0.442363143,0.473552614,0.521322823,,,
division,0.591347337,0.440103024,0.355470866,0.433356464,0.438865155,0.448994428,0.700770438,0.624065399,0.455325842,0.606006801,0.509430575,,,
2008,0.46468991,0.440680295,0.352185905,0.405252904,0.416953683,0.419574708,0.45628652,0.474414498,0.412218988,0.426612645,0.426887006,,,
age,0.690301478,0.529815853,0.663427234,0.654413164,0.502644181,0.52101016,0.655447006,0.666433156,0.646709323,0.620419085,0.615062064,,,
across,0.648096979,0.432698607,0.374202758,0.422736257,0.44807905,0.483232945,0.467821062,0.466417581,0.341355503,0.427479327,0.451212007,,,
object-oriented,0.820944071,0.666669965,1,1,0.701265216,1,0.82331121,0.721974015,1,1,0.873416448,,,
january,0.564501166,0.458996922,0.435196131,0.357139438,0.480925709,0.506694078,0.524128795,0.47364831,0.443354845,0.527772903,0.47723583,,,
practical,0.641350806,0.435552686,0.339540094,0.4149459,0.457843184,0.444611788,0.686362565,0.646604478,0.305264264,0.344968975,0.471704474,,,
running,0.55671829,0.356156081,0.250233024,0.291597664,0.338026553,0.203516155,0.545625627,0.494038552,0.21222207,0.334411442,0.358254546,,,
2010,0.537580609,0.443476915,0.424959481,0.351304471,0.427816033,0.437750816,0.442998618,0.438183188,0.401417106,0.393427879,0.429891512,,,
june,0.531094551,0.488152444,0.444443673,0.389786541,0.469324946,0.473434806,0.523153007,0.491588682,0.424562991,0.492936432,0.472847807,,,
always,0.487293243,0.325779885,0.277423739,0.384475946,0.388681501,0.430906057,0.404631674,0.418071568,0.326086789,0.353206605,0.379655701,,,
linear,0.715778172,0.591137946,0.404710352,0.502407134,0.445577085,0.524754465,0.67974335,0.71907568,0.273098618,0.557157993,0.541344079,,,
paradigm,0.763730347,0.460876107,0.490232706,0.443401396,0.503021479,0.43095696,0.816949785,0.546630263,0.385553092,0.428912967,0.52702651,,,
lab,0.753870964,0.559344232,0.461542368,0.503740132,0.685729861,0.700995207,0.822017014,0.750552177,0.399272799,0.54927057,0.618633533,,,
represent,0.551750422,0.476050526,0.309371829,0.423301578,0.40671891,0.435139328,0.582900167,0.501011372,0.445875347,0.390886366,0.452300584,,,
contains,0.471078724,0.395366967,0.354424924,0.364724785,0.340005338,0.3597022,0.461040467,0.500603676,0.319457084,0.411748141,0.39781523,,,
semantics,0.738328636,0.719335258,0.601769507,0.693150938,0.718670785,0.658676744,0.83356005,0.705932438,0.560896337,0.618255854,0.684857655,,,
website,0.668819129,0.464032382,0.554971039,0.55866456,0.560189486,0.535719931,0.600251496,0.576304436,0.506834924,0.524526596,0.555031398,,,
layer,0.782581687,0.612819076,0.552600682,0.643032908,0.570474386,0.405441999,0.781420648,0.710600436,0.594447076,0.495184362,0.614860326,,,
2012,0.523330033,0.462145597,0.401265532,0.419250041,0.404325366,0.431321234,0.518948138,0.514305353,0.423960596,0.440104097,0.453895599,,,
economics,0.913133442,0.714673281,0.725660324,0.672044277,0.783406198,0.747749269,0.787878036,0.828765273,0.74286294,0.864762008,0.778093505,,,
variety,0.515050113,0.385574877,0.389027774,0.412549108,0.41631496,0.396282881,0.607939005,0.531575441,0.464380592,0.436933994,0.455562875,,,
simply,0.391527832,0.352193922,0.20220615,0.290480435,0.302520931,0.210030749,0.38567847,0.346583366,0.193154961,0.241538316,0.291591513,,,
house,0.732152879,0.613051236,0.621907532,0.53051275,0.522281349,0.534754753,0.724102199,0.794919014,0.622591138,0.691725552,0.63879984,,,
april,0.531324327,0.436297715,0.391564876,0.38655439,0.442441642,0.449336737,0.462101698,0.472287893,0.380507588,0.455153227,0.440757009,,,
good,0.539087117,0.470941126,0.450487167,0.46111697,0.490606099,0.407035738,0.471533358,0.50536418,0.431677997,0.387330353,0.46151801,,,
speed,0.694959879,0.705986738,0.594246686,0.591057718,0.697793722,0.72068584,0.770044506,0.741951883,0.601087689,0.521125436,0.66389401,,,
n't,0.543792129,0.554584026,0.42534101,0.548341274,0.573764384,0.518937111,0.533525288,0.577595353,0.504713535,0.530022204,0.531061631,,,
2015,0.497351438,0.442892939,0.454252809,0.475000262,0.422698408,0.515469193,0.454595208,0.490916044,0.405547678,0.433336973,0.459206095,,,
educational,0.82545805,0.671340287,0.644013405,0.693682313,0.722883463,0.691955864,0.783079624,0.759629011,0.725159228,0.698973119,0.721617436,,,
chip,0.756644785,0.834733665,0.541431308,0.355993986,0.722566783,0.31788367,0.900128007,0.888203859,0.404607564,0.54537642,0.626757005,,,
present,0.241495758,0.194699883,0.204477429,0.128629774,0.119123541,0.114682831,0.153556481,0.191726178,0.079871677,0.248537138,0.167680069,,,
private,0.652974188,0.381786823,0.467743039,0.407003373,0.514364839,0.556862354,0.647093058,0.590409577,0.516688228,0.599719167,0.533464465,,,
2014,0.55485481,0.455128223,0.39202112,0.484187216,0.420906693,0.46716553,0.479580373,0.494683504,0.428189486,0.449577212,0.462629417,,,
quality,0.735440314,0.511286795,0.53733176,0.497266144,0.425050169,0.484036446,0.729028881,0.757312834,0.560315311,0.583640695,0.582070935,,,
player,0.75365752,0.750818372,0.702324092,0.762738764,0.62853843,0.848307073,0.82600987,0.894552112,0.550440669,0.789096594,0.75064835,,,
2016,0.577183127,0.534208596,0.505970359,0.508352041,0.504143119,0.508190215,0.554543316,0.580626965,0.478729546,0.527317882,0.527926517,,,
cell,0.806935728,0.672346711,0.488364309,0.484975964,0.663249016,0.704899669,0.805576384,0.74272424,0.551967144,0.74251169,0.666355085,,,
review,0.685961127,0.569306433,0.466825277,0.520007551,0.710592568,0.645175219,0.739550948,0.712176621,0.641686022,0.555943966,0.624722573,,,
kernel,0.836504102,0.659841835,0.256819218,0.144565955,0.703234076,0.346619189,0.870880902,0.778420389,0.211801812,0.162658259,0.497134574,,,
2013,0.518160403,0.450707644,0.513714612,0.398967534,0.4248752,0.480215102,0.510283709,0.55367285,0.415264726,0.417417049,0.468327883,,,
march,0.551079929,0.469287604,0.447841406,0.40782994,0.508546233,0.483085841,0.541005731,0.50314647,0.420262575,0.491695344,0.482378107,,,
experience,0.680695832,0.517529786,0.422451228,0.447710603,0.508079112,0.49048686,0.680180073,0.598413646,0.542293727,0.570672393,0.545851326,,,
ieee,0.824845791,0.785317957,0.669098377,0.664089859,0.695969164,0.72571969,0.825487077,0.773958743,0.477254659,0.692596138,0.713433746,,,
understanding,0.752822578,0.630181909,0.572447717,0.484950662,0.570234656,0.626723826,0.66622591,0.63461411,0.601646781,0.587051749,0.61268999,,,
whose,0.36523357,0.240821034,0.170722812,0.223232195,0.267548621,0.295050234,0.225937009,0.381851256,0.200517818,0.110935949,0.24818505,,,
future,0.534773886,0.386250883,0.463485718,0.399791092,0.319775939,0.349355698,0.447100878,0.475948006,0.400724143,0.363326639,0.414053288,,,
thread,0.574861348,0.684527338,0.146252692,0.258833766,0.220274001,0.198692217,0.630212963,0.432058752,0.206184492,0.241446212,0.359334378,,,
flow,0.621538281,0.649808645,0.385076314,0.475403965,0.443269253,0.523075104,0.635151744,0.632890046,0.367271394,0.396612108,0.513009685,,,
etc,0.522669673,0.283030361,0.294047058,0.300097257,0.311210811,0.40377301,0.615137458,0.530961215,0.320531905,0.430735201,0.401219395,,,
vector,0.639428973,0.707074106,0.419113308,0.559578955,0.604742646,0.60394907,0.734009862,0.72766602,0.380540609,0.319734067,0.569583762,,,
production,0.647623718,0.532618403,0.38219592,0.550976515,0.562164009,0.543188035,0.58783567,0.597226858,0.492516339,0.469543517,0.536588898,,,
effort,0.62849474,0.479276061,0.389297396,0.517762959,0.521909714,0.483139783,0.602760792,0.545564771,0.458082318,0.483522058,0.510981059,,,
document,0.617457867,0.592749298,0.507968128,0.474014997,0.437534451,0.471146017,0.638682008,0.657585621,0.511434078,0.576609373,0.548518184,,,
founded,0.703530431,0.590616167,0.543227792,0.571829557,0.525831461,0.527810752,0.71895963,0.767619669,0.613079965,0.653385222,0.621589065,,,
useful,0.550448716,0.412930638,0.400182366,0.303135633,0.528868854,0.448536456,0.627220213,0.422084183,0.387588203,0.457690954,0.453868622,,,
october,0.536796868,0.486704856,0.430179387,0.39894405,0.516859889,0.482600898,0.504236877,0.528172195,0.464434385,0.48756519,0.483649459,,,
full,0.290567815,0.090915404,0.07864958,0.215679631,0.181046993,0.209741369,0.324576735,0.317494512,0.162435025,0.1848616,0.205596866,,,
european,0.646045327,0.644021332,0.601204634,0.499817282,0.542687178,0.531972766,0.641429067,0.704798102,0.577087283,0.566364169,0.595542714,,,
mit,0.729749262,0.614804447,0.557174206,0.416514695,0.515175223,0.604009211,0.87989378,0.842169404,0.332715303,0.658386707,0.615059224,,,
centre,0.854285717,0.527917266,0.550316811,0.642084301,0.601180911,0.6573807,0.797718406,0.841749609,0.612293065,0.723676324,0.680860311,,,
upon,0.463476151,0.351937771,0.25077036,0.313125074,0.370827824,0.377818704,0.426127255,0.482732147,0.287902325,0.459367484,0.378408509,,,
third,0.297359854,0.219576105,0.135895371,0.228312105,0.209092483,0.226200104,0.254065275,0.297395736,0.20235543,0.363848895,0.243410136,,,
union,0.668061078,0.575894594,0.582930088,0.343842059,0.60769242,0.581198871,0.709903538,0.682501018,0.56336987,0.579974055,0.589536759,,,
2007,0.451666266,0.415281147,0.434473425,0.284917355,0.381420732,0.396300316,0.442903757,0.436811954,0.376450062,0.32729727,0.394752228,,,
mobile,0.827933192,0.654153049,0.669137716,0.430848688,0.697690904,0.596186638,0.813991129,0.710042775,0.666482747,0.620416582,0.668688342,,,
september,0.600778699,0.485319167,0.459526062,0.423932225,0.487520337,0.485672474,0.556363344,0.530945241,0.4661524,0.528283536,0.502449349,,,
finite,0.789417624,0.668126047,0.475522548,0.496871591,0.703936398,0.666777313,0.710077345,0.649747372,0.392828256,0.585648417,0.613895291,,,
energy,0.828813195,0.686340272,0.732495546,0.821433544,0.703699231,0.653054476,0.79889816,0.793076515,0.624886811,0.664671481,0.730736923,,,
william,0.756292284,0.668544829,0.778480887,0.64556402,0.645432949,0.621415138,0.842049718,0.836394668,0.697629571,0.726682365,0.721848643,,,
site,0.782454848,0.517364383,0.461871684,0.465434253,0.530608356,0.422939509,0.553745449,0.458125144,0.456456572,0.437296957,0.508629715,,,
drive,0.516357183,0.361569822,0.465529472,0.312985092,0.526848197,0.42786625,0.786136448,0.663857877,0.404274553,0.368542969,0.483396786,,,
basis,0.430589259,0.335018367,0.298379868,0.240895361,0.379785597,0.281153113,0.567820072,0.518779576,0.375592589,0.283293545,0.371130735,,,
cognitive,0.867076457,0.72631681,0.74687618,0.673770189,0.797896981,0.794954419,0.907758176,0.858493328,0.738538623,0.759479702,0.787116086,,,
python,0.683364749,0.537690818,0.468271017,0.317755133,0.539221108,0.529569149,0.726663053,0.63292706,0.349827647,0.416654527,0.520194426,,,
facility,0.778434515,0.60864234,0.617423475,0.494913816,0.671951652,0.673010588,0.75009191,0.756687462,0.637196541,0.68602103,0.667437333,,,
region,0.669047117,0.563644052,0.587397039,0.538313031,0.626214266,0.615816057,0.574056923,0.558883727,0.541194141,0.563021183,0.583758754,,,
lisp,0.722099006,0.445738971,0.530644476,0.506390095,0.716163993,0.621602118,0.775129318,0.700212717,0.525742948,0.217933536,0.576165718,,,
military,0.785742223,0.73824662,0.706365824,0.576933801,0.738320947,0.736207366,0.799493194,0.794911623,0.708846569,0.749319732,0.73343879,,,
thing,0.636048436,0.475164205,0.50823158,0.476305425,0.576588571,0.498325944,0.594133258,0.567558765,0.477182031,0.509917438,0.531945565,,,
display,0.614513695,0.553667843,0.421599209,0.444392145,0.509289801,0.360155314,0.739624202,0.716103375,0.579947233,0.53283906,0.547213188,,,
arithmetic,0.685927749,0.65337348,0.512401462,0.442995638,0.708718061,0.501243234,0.874153078,0.686371863,0.536720395,0.536534846,0.61384398,,,
independent,0.44874841,0.46505329,0.247049391,0.302320272,0.296799541,0.285996735,0.391670704,0.467002928,0.240344405,0.347792625,0.34927783,,,
started,0.3963916,0.219702065,0.26783967,0.228135735,0.251267791,0.374325037,0.414819181,0.491929799,0.251085371,0.277685374,0.317318162,,,
implement,0.500513554,0.452458858,0.392527193,0.338638186,0.363475591,0.378203094,0.69126749,0.481407344,0.287899673,0.323006719,0.42093977,,,
construction,0.428727925,0.393054903,0.381790996,0.427731842,0.33195886,0.340973258,0.547448218,0.618544817,0.387016177,0.514631093,0.437187809,,,
2009,0.484577626,0.373365253,0.425485194,0.374053061,0.403203219,0.456999123,0.419461459,0.441689849,0.370912015,0.37744987,0.412719667,,,
official,0.529955029,0.462918699,0.372285157,0.392992616,0.416631401,0.463334382,0.515198112,0.52528131,0.398352057,0.415240884,0.449218965,,,
length,0.586482286,0.52362752,0.45444411,0.377426744,0.508194208,0.544353306,0.639289081,0.647092104,0.476732343,0.503466666,0.526110837,,,
response,0.625499725,0.436963856,0.357369065,0.364020348,0.533991933,0.535829663,0.58342272,0.576622784,0.457327753,0.549867988,0.502091584,,,
widely,0.563640416,0.490934759,0.362868756,0.390988499,0.401722074,0.439699173,0.570206642,0.518941522,0.446331531,0.438138992,0.462347236,,,
2006,0.458059669,0.397406578,0.371205479,0.340606958,0.372339875,0.397399545,0.444013596,0.470226437,0.329558164,0.374026775,0.395484307,,,
psychology,0.907545447,0.848605514,0.800457537,0.767476618,0.762421966,0.746620655,0.878428519,0.861298978,0.75575161,0.888355494,0.821696234,,,
represented,0.459274858,0.304543495,0.277463049,0.326285452,0.342084825,0.308660835,0.493799537,0.474285454,0.361174047,0.357142359,0.370471391,,,
contain,0.569695234,0.462700754,0.348386139,0.4070611,0.493520081,0.370040178,0.605679274,0.551471293,0.414821893,0.398164988,0.462154093,,,
efficient,0.571422756,0.458529413,0.336091071,0.380843371,0.302080691,0.48436445,0.688030422,0.620295584,0.419156909,0.457085818,0.471790048,,,
constant,0.525548041,0.569906473,0.423573196,0.312130183,0.321772814,0.364425272,0.673260868,0.643290401,0.287980795,0.457054317,0.457894236,,,
syntax,0.639170766,0.705043852,0.485308081,1,0.627798319,0.563988984,0.871326029,0.691180229,0.668441117,0.488147795,0.674040517,,,
calculation,0.589123368,0.648655891,0.288295031,0.38376826,0.717749,0.576175332,0.803371429,0.701599598,0.519650578,0.522770822,0.575115931,,,
traditional,0.604025006,0.466903031,0.423957914,0.364548594,0.438331664,0.4259848,0.570227146,0.553966761,0.454113752,0.46873492,0.477079359,,,
map,0.527211368,0.453064442,0.210145757,0.358925164,0.487594873,0.363179237,0.50133723,0.51819402,0.290045887,0.339545995,0.404924397,,,
build,0.585460365,0.50110203,0.455191284,0.385817677,0.431331813,0.537740231,0.623913944,0.570179045,0.374826908,0.408943206,0.48745065,,,
2017,0.580347896,0.51975143,0.36840257,0.415985346,0.499867946,0.559726059,0.544719756,0.596488178,0.489447802,0.531306684,0.510604367,,,
reason,0.468569428,0.35827598,0.323057353,0.341309309,0.353371412,0.376527548,0.367664754,0.340283722,0.293945938,0.332016408,0.355502185,,,
industrial,0.77812016,0.622618258,0.600241601,0.559198856,0.564695716,0.690137267,0.746828973,0.749989271,0.67956394,0.615920424,0.660731447,,,
visual,0.655081987,0.566121638,0.457453072,0.372515112,0.672213852,0.572307229,0.689357579,0.700032353,0.513841927,0.518536627,0.571746138,,,
move,0.434241623,0.415538967,0.19886075,0.296560138,0.377376676,0.461402982,0.52245903,0.535706282,0.305890381,0.364894986,0.391293181,,,
gate,0.418427229,0.508678317,0.265939474,0.196189642,0.427026778,0.379405648,0.772925138,0.652518988,0.245136753,0.38642785,0.425267582,,,
leading,0.445745796,0.265119344,0.282088965,0.175323531,0.275968641,0.323483437,0.427111894,0.423637033,0.25260374,0.390066385,0.326114877,,,
leader,0.653678715,0.639177442,0.521334708,0.445453584,0.546063542,0.532286286,0.596447825,0.648448765,0.540161848,0.599393845,0.572244656,,,
german,0.757108271,0.712521017,0.655313969,0.605171502,0.626586974,0.715258002,0.825785339,0.864320278,0.69681716,0.735802412,0.719468492,,,
attack,0.718357325,0.655156553,0.630178034,0.507158995,0.538207591,0.576401532,0.740096807,0.770508289,0.558043659,0.530788779,0.622489756,,,
category,0.432843119,0.382024407,0.331532121,0.301303446,0.37609902,0.359502196,0.459308624,0.474106014,0.307699561,0.312821686,0.37372402,,,
seen,0.406876892,0.283435792,0.320603192,0.324577361,0.345821887,0.237598151,0.348418027,0.323393464,0.245687753,0.214520827,0.305093335,,,
come,0.401945859,0.200988129,0.185094178,0.193951249,0.28518486,0.237678304,0.272786856,0.285838246,0.235879675,0.216832563,0.251617992,,,
writing,0.53333503,0.404614896,0.471254289,0.45497033,0.447498888,0.411125869,0.611262381,0.577680707,0.472462475,0.50213784,0.48863427,,,
earth,0.809146345,0.739585936,0.617761552,0.559989691,0.686330914,0.658783793,0.815800071,0.8404724,0.642476976,0.736955404,0.710730308,,,
difficult,0.600089312,0.486508459,0.457392156,0.429154843,0.475886345,0.539929807,0.71298641,0.627473652,0.466413766,0.546070576,0.534190533,,,
attempt,0.514984727,0.33901763,0.31188786,0.395323306,0.423152447,0.364274234,0.442506909,0.423616022,0.358000547,0.352626145,0.392538983,,,
develop,0.704468787,0.508309603,0.480672568,0.432508826,0.52023077,0.484256834,0.687851846,0.634900093,0.504883409,0.526160359,0.548424309,,,
held,0.540362835,0.470163316,0.445653528,0.419113487,0.463330358,0.51952368,0.505836666,0.540677369,0.552325249,0.468557954,0.492554444,,,
2018,0.592208266,0.483282924,0.474610925,0.455043346,0.476835191,0.561354578,0.49513796,0.548771799,0.426513612,0.505613327,0.501937193,,,
topic,0.729282677,0.649415791,0.506973565,0.583413482,0.523963869,0.652953565,0.725974917,0.668126822,0.587606847,0.645177007,0.627288854,,,
extension,0.525240183,0.17426154,0.162184864,0.126422286,0.221090332,0.122487158,0.574833632,0.447795868,0.132510602,0.252205789,0.273903225,,,
alternative,0.498132408,0.26086691,0.229149595,0.143070683,0.246048361,0.350915998,0.462710947,0.441533595,0.234236136,0.373176724,0.323984136,,,
client,0.664111614,0.625909686,0.466326058,0.315570921,0.502569973,0.428526819,0.75993365,0.635493517,0.506227195,0.447298139,0.535196757,,,
california,0.765268207,0.700405896,0.686629236,0.643678427,0.68966651,0.723197162,0.837643027,0.86065346,0.573373258,0.781361997,0.726187718,,,
developer,0.608068466,0.616661012,0.481739223,0.609912872,0.605591118,0.528230786,0.69062537,0.675169647,0.3526389,0.335253894,0.550389129,,,
modeling,0.773086071,0.634046137,0.531636834,0.619614005,0.58676827,0.705460489,0.767712891,0.724051714,0.46644026,0.655108273,0.646392494,,,
water,0.775331497,0.779818952,0.676418424,0.655441582,0.755103767,0.685294867,0.774072111,0.781334817,0.744500577,0.696216285,0.732353288,,,
initial,0.365979522,0.313493699,0.213768244,0.184568778,0.198645636,0.240371972,0.344893396,0.360654056,0.159562901,0.204976097,0.25869143,,,
august,0.530732632,0.457821697,0.408308536,0.40174526,0.470727146,0.402704,0.513760805,0.508272827,0.453621835,0.50340122,0.465109596,,,
final,0.386100501,0.314938873,0.342223644,0.392150313,0.434278041,0.399471372,0.431417346,0.49921611,0.276678026,0.386257052,0.386273128,,,
allowed,0.509792984,0.342194587,0.346450806,0.303266823,0.341797739,0.446166486,0.457285076,0.556184232,0.360572517,0.347322375,0.401103362,,,
population,0.850287437,0.781782925,0.754238427,0.720122635,0.787929535,0.786515951,0.777336717,0.791344047,0.746737897,0.764515579,0.776081115,,,
primary,0.514358461,0.393919855,0.36471051,0.217455164,0.226475999,0.391210377,0.437454104,0.466187596,0.383600652,0.447919697,0.384329242,,,
release,0.626043499,0.539678454,0.230634317,0.492543191,0.658564329,0.604174316,0.666921139,0.623659194,0.554866374,0.418544322,0.541562913,,,
november,0.537242174,0.482633412,0.440657496,0.390880048,0.492155284,0.503375471,0.535373449,0.510829091,0.430533946,0.454862148,0.477854252,,,
